157 100 297
B64:ZGl2 -0.040916457772254944 0.025601107627153397 -0.07993420213460922 0.025113040581345558 0.04731359705328941 0.09108375012874603 0.05392630025744438 -0.022775638848543167 -0.015216292813420296 -0.014994421973824501 -0.012462434358894825 0.02607598900794983 0.032982293516397476 0.07118421792984009 -0.04258036985993385 0.06974231451749802 -0.05582941323518753 -0.03614426404237747 -0.08430472016334534 0.06375201046466827 0.009503155946731567 -0.09367434680461884 -0.015540213324129581 0.06851700693368912 0.01489963848143816 -0.05183635279536247 -0.054598886519670486 -0.050988439470529556 -0.06216708943247795 -0.003987662959843874 -0.0015805542934685946 -0.010722692124545574 -0.010297034867107868 -0.1266121119260788 0.03330906480550766 0.08854290843009949 0.09926252067089081 0.03371588513255119 0.014350692741572857 0.030979234725236893 -0.0062752882950007915 -0.06219347566366196 -0.05841396376490593 0.010617812164127827 -0.0038840097840875387 0.021455783396959305 -0.007394317537546158 0.044702183455228806 0.04913046211004257 -0.06397426128387451 0.06330244243144989 -0.042778175324201584 0.048626214265823364 -0.022629346698522568 0.01395504642277956 0.036516204476356506 0.0020811145659536123 0.0245957113802433 -0.034511685371398926 -0.03765196353197098 0.03324414789676666 0.06740476936101913 -0.06353899836540222 0.08391992002725601 0.009538690559566021 -0.01034015417098999 0.08000705391168594 0.02450716122984886 0.02032295987010002 -0.0029712070245295763 0.04580715298652649 -0.029875243082642555 -0.0646643340587616 0.02368566393852234 -0.0221351757645607 -0.03722238540649414 -0.0159266609698534 0.03816058859229088 -0.029201967641711235 -0.060723926872015 0.0032866722904145718 -0.009673274122178555 -0.035874754190444946 -0.0016732487129047513 -0.010465544648468494 -0.01913093961775303 0.024187268689274788 0.00404323311522603 0.014072168618440628 -0.03369447961449623 0.013963693752884865 0.01871195062994957 0.13374222815036774 0.005668452475219965 0.06020244583487511 0.005452838260680437 0.014776377007365227 0.010079499334096909 0.01811995357275009 -0.0035760903265327215
B64:c3Bhbg== -0.06455015391111374 -0.004494133871048689 -0.04009358957409859 -0.02934371307492256 0.004785407334566116 0.028277065604925156 0.06307806819677353 -0.06735550612211227 -0.05619174242019653 -0.03517773002386093 -0.035872649401426315 -0.007315418217331171 -0.0044281077571213245 -0.034079667180776596 -0.05697092413902283 0.016312051564455032 0.039482954889535904 0.003094711108133197 -0.056973446160554886 -0.004002346657216549 0.02585037425160408 -0.04171903431415558 -0.003973876591771841 0.03713579475879669 0.037203021347522736 2.8850208036601543E-4 0.05921045318245888 -0.04590911045670509 0.0024633577559143305 0.024251962080597878 -0.029306545853614807 0.06560251861810684 -0.057892877608537674 -0.06085183471441269 0.042114321142435074 0.04680592566728592 0.06203987076878548 0.008716242387890816 -0.033895839005708694 0.02342318370938301 0.036775268614292145 -0.006225127726793289 -0.037052422761917114 0.009097245521843433 0.0021547777578234673 0.006437572650611401 -0.005338853690773249 0.04888183996081352 -0.023312419652938843 0.024613182991743088 0.0747576430439949 -0.01040925644338131 0.020849939435720444 -0.05406618490815163 -0.017432712018489838 -0.010223244316875935 -0.04182283952832222 -0.007941537536680698 0.017291396856307983 -0.07656534761190414 -0.017734594643115997 0.0856722965836525 -0.036792509257793427 0.029671836644411087 0.029427260160446167 -0.10225193947553635 -0.0396217443048954 0.0778503492474556 0.0528782457113266 -0.010735328309237957 -0.10590782016515732 0.05193907395005226 -0.061752673238515854 -0.016472764313220978 0.07001100480556488 -0.016026930883526802 -0.045496758073568344 0.03531695902347565 -0.019815323874354362 -0.02853444404900074 0.0907154232263565 -0.054445624351501465 -0.011159420013427734 0.038751889020204544 0.03135287016630173 -0.02907148376107216 0.016974421218037605 0.04056518152356148 -0.015265554189682007 -0.007218551822006702 0.01688116230070591 0.018161145970225334 0.08206455409526825 0.044402334839105606 0.028294112533330917 0.037625931203365326 -0.025755560025572777 0.06345181167125702 0.020589377731084824 0.00857611559331417
B64:YnV0dG9u -0.13098491728305817 0.02626827545464039 -0.19977180659770966 -1.993842306546867E-5 0.07597076892852783 0.1308395266532898 0.11557275056838989 -0.15963952243328094 -0.11107654124498367 -0.10877807438373566 -0.03817881643772125 0.057371340692043304 0.011894145980477333 -0.014532356522977352 -0.09797872602939606 0.09050390124320984 -0.008396410383284092 -0.014451440423727036 -0.1716565489768982 0.10963147133588791 0.022842038422822952 -0.1320352703332901 -0.004685495514422655 0.10330568999052048 0.07297317683696747 -0.08466943353414536 -0.0010367486393079162 -0.1452081799507141 -0.10253791511058807 0.0516556054353714 -0.013578290119767189 0.05485853925347328 -0.0991024523973465 -0.23390203714370728 0.10672277957201004 0.15437889099121094 0.21889999508857727 -0.012744341045618057 -0.07780814915895462 0.07240030169487 0.010903689078986645 -0.08546052128076553 -0.07696477323770523 0.023799937218427658 0.04653565585613251 -1.9107919069938362E-4 -0.05608749017119408 0.07894787937402725 0.022797156125307083 -0.06164060905575752 0.1531538963317871 -0.040736012160778046 0.09080836176872253 -0.1423899531364441 -0.015590270049870014 0.03562331944704056 -0.04778432101011276 0.06329958140850067 -0.006310354918241501 -0.12781450152397156 -0.00457262946292758 0.17161665856838226 -0.11498283594846725 0.15608347952365875 0.02410811558365822 -0.0663520023226738 0.04291452467441559 0.15272589027881622 0.07918733358383179 -0.05387361720204353 -0.09378743171691895 0.017064793035387993 -0.1771818846464157 -0.021846378222107887 0.006066520698368549 -0.06841515004634857 -0.11336005479097366 0.12336188554763794 -0.04937067627906799 -0.1283126175403595 0.1129961684346199 -0.03193097189068794 -0.08997603505849838 0.02870933711528778 0.04520830139517784 -0.04206395894289017 0.06301584094762802 0.06828378885984421 -6.01501960773021E-4 -0.05254190042614937 0.03012118861079216 -0.0142811369150877 0.2281753122806549 0.10982650518417358 0.121364064514637 0.048825763165950775 -0.039893683046102524 0.11097662150859833 0.05873988941311836 0.05052928999066353
B64:bGluaw== 0.02689993940293789 0.06348899751901627 -0.20652148127555847 0.19722743332386017 0.10241209715604782 0.19885919988155365 -0.10450093448162079 -0.003819313831627369 0.025422610342502594 -0.0748651847243309 0.10670378804206848 0.10381719470024109 0.005371982231736183 0.22628724575042725 0.15065884590148926 0.19643965363502502 -0.29625558853149414 -0.12769295275211334 -0.07013322412967682 0.23127812147140503 -0.0652826577425003 -0.1197560653090477 0.0019549138378351927 0.14270010590553284 -0.11799171566963196 -0.21905045211315155 -0.24574650824069977 -0.13508258759975433 -0.1726967841386795 -0.025340665131807327 0.029654808342456818 -0.25337153673171997 0.10598735511302948 -0.2082422971725464 -0.01174960657954216 0.22134648263454437 0.2182583063840866 -0.013627562671899796 0.04228583723306656 0.14957796037197113 -0.19510485231876373 -0.10788987576961517 0.021706951782107353 0.02481405809521675 -0.016505151987075806 -0.061160244047641754 -0.09639991819858551 -0.10874419659376144 0.24087683856487274 -0.43119335174560547 -0.027356836944818497 0.030556386336684227 0.09370844811201096 0.007385789882391691 0.075421541929245 0.15218789875507355 0.05294305458664894 0.14032195508480072 -0.12147104740142822 -0.012597540393471718 0.06606104969978333 -0.035429421812295914 -0.19789859652519226 0.16726848483085632 0.028244229033589363 0.36806076765060425 0.3009108901023865 -0.051008984446525574 -0.06444092839956284 -0.134159654378891 0.32197731733322144 -0.202000692486763 -0.10924652963876724 0.08441124856472015 -0.3274216949939728 0.06992155313491821 -0.018808141350746155 0.06781064718961716 0.00143701012711972 -0.23615431785583496 -0.15673749148845673 0.05817462503910065 -0.0813305526971817 -0.12212474644184113 -0.10981382429599762 -0.05353599414229393 0.03348948806524277 -0.07706745713949203 0.17245003581047058 -0.055243492126464844 -0.10791792720556259 -0.08338230103254318 0.0784204974770546 -0.019552620127797127 0.14604401588439941 -0.07727839052677155 -0.06776034832000732 -0.06880800426006317 -0.03494967147707939 0.09108894318342209
B64:YQ== 0.010189084336161613 0.04698925092816353 -0.10370860993862152 0.17379018664360046 0.04530904069542885 0.13648194074630737 -0.07214265316724777 -0.007471935357898474 0.03668053075671196 -0.0411963015794754 0.07489889860153198 0.05021442472934723 0.03506168723106384 0.17183052003383636 0.07524169981479645 0.11544355005025864 -0.211532324552536 -0.10905227065086365 -0.07432425022125244 0.16934992372989655 -0.08351916819810867 -0.1305367797613144 0.018757378682494164 0.1029764786362648 -0.09605593979358673 -0.182530477643013 -0.15027622878551483 -0.09302524477243423 -0.11061032116413116 -0.0216294527053833 0.002329736016690731 -0.16528627276420593 0.07843957096338272 -0.13806164264678955 -0.031283747404813766 0.16213198006153107 0.11445728689432144 0.04755673184990883 0.07366455346345901 0.08528859913349152 -0.09602398425340652 -0.10731954872608185 0.008800669573247433 0.02546970546245575 0.01669669710099697 -0.03817233070731163 -0.0335732027888298 -0.021113241091370583 0.14570872485637665 -0.2702202796936035 -0.0061447229236364365 -0.0221908837556839 0.0669451653957367 0.008520212955772877 0.07563158869743347 0.11379960924386978 0.027320679277181625 0.07162336260080338 -0.07871869206428528 0.013140498660504818 0.0676853209733963 -0.015655769035220146 -0.1269122213125229 0.1029713898897171 0.016022205352783203 0.22948651015758514 0.21724559366703033 -0.062072932720184326 -0.06441967189311981 -0.08591266721487045 0.22693611681461334 -0.15831215679645538 -0.07670261710882187 0.06375022977590561 -0.2119586169719696 0.07688697427511215 0.027486154809594154 0.02913275919854641 -0.011505920439958572 -0.1544591188430786 -0.12683932483196259 0.055953290313482285 -0.07527606189250946 -0.0843576043844223 -0.12003995478153229 -0.03338465839624405 0.005612402223050594 -0.030654313042759895 0.13233372569084167 0.011370479129254818 -0.0828896164894104 -0.03499818220734596 0.08420504629611969 -0.015827516093850136 0.1248491033911705 -0.022350938990712166 -0.03611838072538376 -0.03273091837763786 -0.01793452724814415 0.036740951240062714
B64:Y2lh 0.10043586045503616 0.03717988356947899 0.04460277408361435 0.04716305434703827 0.0053690355271101 -0.01080467738211155 -0.07078319787979126 0.07557674497365952 0.06960532069206238 0.036472588777542114 0.0200627613812685 0.014294641092419624 0.02558014541864395 0.07017883658409119 0.08662118017673492 -0.018709659576416016 -0.07758443057537079 -0.02094879187643528 0.051301732659339905 0.0044240946881473064 -0.029408462345600128 0.005698646418750286 -4.2611040407791734E-4 -0.03716640546917915 -0.03251410275697708 -0.010196574032306671 -0.09264685958623886 0.05962410196661949 -0.01393955759704113 -0.002948167035356164 0.03881387412548065 -0.09412528574466705 0.0723133385181427 0.05317052826285362 -0.04313310608267784 -0.03042755089700222 -0.04616493359208107 0.014450805261731148 0.06252756714820862 -0.014676816761493683 -0.0391024686396122 -0.011744547635316849 0.023766513913869858 0.008929088711738586 -0.011952552944421768 0.013233952224254608 0.01355395931750536 -0.052037425339221954 0.04657585173845291 -0.06539777666330338 -0.06790908426046371 0.003762400709092617 -0.011656477116048336 0.059816811233758926 0.03357403352856636 0.02727552317082882 0.0496893934905529 -2.1244325034786016E-4 -0.0363442599773407 0.08347555249929428 0.03481246903538704 -0.09996649622917175 0.027057215571403503 -0.006689861882477999 -0.02282213233411312 0.13600929081439972 0.06224953010678291 -0.13352367281913757 -0.07305057346820831 0.02862630784511566 0.15447421371936798 -0.08547335118055344 0.05388776957988739 0.01410303171724081 -0.09089721739292145 0.01498291827738285 0.04769846424460411 -0.07559328526258469 0.010219822637736797 0.01846272498369217 -0.10584981739521027 0.06550166010856628 0.017411818727850914 -0.022314701229333878 -0.04670098051428795 0.026368707418441772 -0.0010135864140465856 -0.04738108068704605 0.03274862840771675 1.7690510139800608E-4 -0.016579344868659973 -0.0179609265178442 -0.05833630636334419 -0.06768590211868286 -0.03439450263977051 -0.039721984416246414 0.04845619946718216 -0.1004643514752388 -0.028521887958049774 -0.009818442165851593
B64:cGFzc3A= 0.009045649319887161 -0.011616792529821396 0.06604547798633575 0.0019178315997123718 -0.01806248538196087 -0.03685835748910904 -0.025457365438342094 0.017595307901501656 0.005538810044527054 0.01311498787254095 -0.0016291997162625194 -0.006507984362542629 -0.007484597619622946 -0.015767326578497887 0.009853091090917587 -0.0277102030813694 0.02491125464439392 0.005514843389391899 0.036240775138139725 -0.015582934021949768 -0.012718492187559605 0.0217725932598114 0.003336678957566619 -0.012424040585756302 -0.008514320477843285 0.004064843989908695 0.007970845326781273 0.04504292458295822 0.01738152839243412 -0.0050429715774953365 -6.305425195023417E-4 0.009548453614115715 0.02356821671128273 0.047626201063394547 -0.025093380361795425 -0.04307990521192551 -0.05950333550572395 0.00617041252553463 0.005498161539435387 -0.03725969418883324 -0.0010867191012948751 0.025023700669407845 0.008063958957791328 -0.013368088752031326 -0.015459890477359295 -0.009672817774116993 -0.0050416975282132626 0.004423798993229866 -0.005105864256620407 0.03850267454981804 -0.03493122756481171 0.0015650744317099452 -0.03221304342150688 0.034985385835170746 0.00886674877256155 -1.3014586875215173E-4 -2.219280577264726E-5 -6.325255963020027E-4 0.021567758172750473 0.020871322602033615 3.9223473868332803E-4 -0.026172155514359474 0.02509552426636219 -0.019792070612311363 -0.022213604301214218 -0.008912142366170883 -0.010559526272118092 -0.01907273381948471 0.009677086025476456 0.023771274834871292 0.006915128789842129 -0.004014240577816963 0.04232321307063103 -0.008761260658502579 0.014757579192519188 0.024726999923586845 0.007080945651978254 -0.002393272938206792 0.016421746462583542 0.03704843670129776 -0.022799119353294373 0.007877056486904621 0.017765337601304054 -0.008958297781646252 -0.02540113404393196 0.0018098880536854267 -0.03345063701272011 -0.006978337187319994 -0.002603268250823021 0.02443544566631317 -0.008272884413599968 -0.014049682766199112 -0.05656664818525314 -0.0039391834288835526 -0.010794796980917454 0.0016997229540720582 -0.0014766938984394073 -0.019867289811372757 -0.004893823526799679 -0.00945518258959055
B64:aG9tZQ== 0.06443443149328232 0.11181622743606567 -0.1979248970746994 0.3390340805053711 0.0678824782371521 0.24488210678100586 -0.1173674464225769 0.013035200536251068 0.11032742261886597 -0.0623733215034008 0.11410092562437057 0.07868488878011703 0.10563461482524872 0.3423537015914917 0.15029169619083405 0.18397964537143707 -0.40083611011505127 -0.19055943191051483 -0.13185596466064453 0.2998921871185303 -0.15659789741039276 -0.2500343918800354 0.033650562167167664 0.16092661023139954 -0.16209878027439117 -0.3150913119316101 -0.3176630735397339 -0.149114727973938 -0.2178603708744049 -0.022732529789209366 0.03272475302219391 -0.3281732201576233 0.15777425467967987 -0.2374829798936844 -0.07680288702249527 0.2825683057308197 0.19921590387821198 0.10115454345941544 0.1550445854663849 0.14366212487220764 -0.15381434559822083 -0.21361732482910156 -0.007126474753022194 0.04686899483203888 0.0311869066208601 -0.04995535686612129 -0.029461205005645752 -0.036034952849149704 0.25197380781173706 -0.4958384335041046 -0.02602836675941944 -0.05160894989967346 0.12594164907932281 0.03681635856628418 0.14695067703723907 0.21239037811756134 0.08976490050554276 0.08663054555654526 -0.15392909944057465 0.05792437866330147 0.16977159678936005 -0.0655469074845314 -0.22876067459583282 0.19471678137779236 0.039701614528894424 0.42848366498947144 0.4047282934188843 -0.17949731647968292 -0.17809033393859863 -0.14083437621593475 0.4460591971874237 -0.3069712221622467 -0.11231665313243866 0.11590471863746643 -0.3950279951095581 0.12472739070653915 0.06449618935585022 0.0045936219394207 -0.026047416031360626 -0.266177237033844 -0.26595064997673035 0.14303676784038544 -0.14064602553844452 -0.1216316744685173 -0.221238911151886 -0.0234000775963068 0.04633551836013794 -0.06591405719518661 0.22747929394245148 0.014956500381231308 -0.1438726931810379 -0.05523882806301117 0.17579205334186554 -0.07783810049295425 0.21075361967086792 -0.05861165374517441 -0.008578012697398663 -0.08516351878643036 -0.024918751791119576 0.05780179426074028
B64:aA== -0.014492074027657509 -0.005476335994899273 -0.010806314647197723 0.018166130408644676 0.00597956869751215 0.02466423623263836 0.005387735087424517 -0.003359286580234766 -0.001470040064305067 -0.005368622485548258 -0.0018493914976716042 9.987008525058627E-4 0.003152285935357213 0.006217758171260357 -0.014047759585082531 0.02178596518933773 -0.013253181241452694 -0.003089483827352524 -0.025309057906270027 0.022063642740249634 -0.016807718202471733 -0.01597384363412857 0.006720280274748802 0.013608673587441444 -0.007579218130558729 -0.02383827045559883 -0.007667702157050371 -0.015041015110909939 -0.009075634181499481 -0.00723608210682869 -0.0044249980710446835 -0.003236157353967428 0.007898802869021893 -0.026000438258051872 4.609947791323066E-4 0.02790287882089615 0.012502194382250309 0.011669225990772247 0.004689359571784735 0.008769048377871513 -1.7361523350700736E-4 -0.016940632835030556 -0.013776285573840141 -9.274691110476851E-4 6.1654212186113E-4 -0.0030918314587324858 -0.004118547774851322 0.005139237269759178 -5.343347766029183E-6 -0.020784346386790276 0.00855185091495514 -0.004516533110290766 0.00783376395702362 -0.0013970768777653575 3.4717554808594286E-4 0.0156173724681139 -0.00841508898884058 0.004045723006129265 -0.0060245562344789505 -0.013282385654747486 0.015731442719697952 0.015261656604707241 -0.018704066053032875 0.007676362991333008 0.0061578270979225636 0.006799339782446623 0.015336940065026283 0.006409850437194109 -0.0011736445594578981 -0.010311676189303398 0.010436205193400383 -0.010970113798975945 -0.010680537670850754 0.007494175340980291 -0.009144516661763191 0.0017826731782406569 0.005316377151757479 0.00922545325011015 0.0029808375984430313 -0.013607763685286045 -0.0031890906393527985 -0.0054417941719293594 -0.011032764799892902 0.001442269654944539 -0.015118726529181004 -0.010372614488005638 -0.0015772987389937043 0.011578644625842571 0.00725187361240387 0.005487979389727116 -0.008485617116093636 0.0034117577597498894 0.019089870154857635 0.006691284012049437 0.0273804422467947 5.578157724812627E-4 -0.006552132777869701 0.012292146682739258 -9.731040918268263E-4 -0.0025930507108569145
B64:Y3M= 0.01685800589621067 -0.006604583468288183 0.06001068651676178 -0.05248629301786423 -0.0010140242520719767 -0.05137987807393074 -0.012814650312066078 0.016594944521784782 0.014975008554756641 0.029171325266361237 -0.009176118299365044 -2.7692370349541306E-4 -0.023003917187452316 -0.027308901771903038 0.006340232212096453 -0.03645918890833855 0.03511383756995201 0.025783579796552658 0.03541870415210724 -0.042870085686445236 0.02533111162483692 0.044870320707559586 -0.003775446442887187 -0.03075007162988186 0.007160646375268698 0.04717922583222389 0.021196341142058372 0.03852352499961853 0.03631224110722542 -0.0029549861792474985 0.003127120900899172 0.015501423738896847 -0.0019904624205082655 0.05800459906458855 -0.008847231976687908 -0.06570272147655487 -0.05892636254429817 -0.011215786449611187 -0.0010405635694041848 -0.03558605909347534 0.012455769814550877 0.043030478060245514 0.001755054690875113 -0.00845466461032629 -0.012421087361872196 0.004668007139116526 -0.002103730570524931 -0.005611510947346687 -0.03239085525274277 0.0627521201968193 -0.03248494863510132 0.007436459884047508 -0.021859871223568916 0.008385428227484226 -0.0035269069485366344 -0.03072698414325714 0.0020017498172819614 -0.006184394005686045 0.010458149947226048 0.013832073658704758 -0.031188135966658592 -0.02117728441953659 0.05871959030628204 -0.03540720418095589 -0.018376225605607033 -0.033115021884441376 -0.049678508192300797 0.0015716617926955223 0.006355410907417536 0.03322233259677887 -0.02852983959019184 0.015739068388938904 0.04259495809674263 -0.014466168358922005 0.037738051265478134 -0.012049894779920578 -0.002797521650791168 -0.017963584512472153 0.003962739370763302 0.04650904983282089 -0.0019861669279634953 -0.004288515076041222 0.02322143316268921 2.6889267610386014E-4 0.03369167074561119 0.010020527057349682 -0.011450618505477905 -9.042712044902146E-4 -0.02023761346936226 -0.0023603809531778097 0.016464604064822197 -0.0012232260778546333 -0.05514419078826904 -0.00985341053456068 -0.05163494870066643 0.0011472018668428063 0.01784062571823597 -0.019293438643217087 -0.016375230625271797 -0.01659092865884304
B64:cGFzc3BpY29u -0.05438853055238724 -0.04735417291522026 0.02932843007147312 -0.10398855060338974 -0.03630197048187256 -0.05326206609606743 0.05557040125131607 -0.027665935456752777 -0.042387109249830246 -0.00997145101428032 -0.03318476304411888 -0.04472218081355095 -0.014330425299704075 -0.11120754480361938 -0.08117617666721344 -0.06303714215755463 0.13446082174777985 0.06923559308052063 -0.004137059673666954 -0.09216450154781342 0.036886755377054214 0.07203177362680435 -0.01808195374906063 -0.04598015174269676 0.07399232685565948 0.09260601550340652 0.11064621061086655 0.029801897704601288 0.07616186887025833 0.0034961593337357044 -0.011072983965277672 0.11887235194444656 -0.0804186537861824 0.04927203804254532 0.02412678673863411 -0.06832560896873474 -0.047812193632125854 -0.01897428184747696 -0.05655638128519058 -0.023866772651672363 0.08319783210754395 0.06441452354192734 -0.013721904717385769 -0.015052931383252144 0.018297400325536728 0.014247377403080463 0.027425669133663177 0.033349938690662384 -0.10593380033969879 0.17113621532917023 0.019370876252651215 0.007515779230743647 -0.028628123924136162 -0.042051974684000015 -0.05694150924682617 -0.07844699919223785 -0.04867105558514595 -0.05109527334570885 0.04649100825190544 -0.044285848736763 -0.03740604966878891 0.04985468462109566 0.06703094393014908 -0.05518428236246109 0.011616499163210392 -0.176883265376091 -0.14847761392593384 0.07394658029079437 0.06089194491505623 0.025064973160624504 -0.1731986105442047 0.11154815554618835 0.024088332429528236 -0.036760114133358 0.12943829596042633 -0.049133431166410446 -0.0173709224909544 -8.019967935979366E-4 0.008302868343889713 0.06262651085853577 0.10505981743335724 -0.05475499480962753 0.02714434452354908 0.04712594673037529 0.07448839396238327 -0.009583154693245888 0.012343034148216248 0.0294827651232481 -0.08332141488790512 -0.00443071685731411 0.039483897387981415 0.03950479254126549 -0.005369339603930712 0.03724510222673416 -0.04310373216867447 0.027023781090974808 -8.695198921486735E-4 0.073503777384758 0.021443279460072517 -0.018912995234131813
B64:c2VhcmNo -0.0063564893789589405 0.02701612189412117 -0.06653626263141632 0.0050954436883330345 0.021444475278258324 0.01869872584939003 0.0310424342751503 -0.03420233353972435 -0.019323481246829033 -0.024862078949809074 -0.017685042694211006 0.014676660299301147 0.013314303942024708 0.011438512243330479 -0.007862587459385395 0.01385310385376215 0.004252636805176735 -0.0032501863315701485 -0.0184337105602026 0.016779575496912003 0.015160133130848408 -0.02058677189052105 -0.0027518654242157936 0.01428267639130354 0.020403390750288963 6.425578612834215E-4 -0.016740089282393456 -0.030789680778980255 -0.0355682373046875 0.028959089890122414 0.00830779131501913 0.014712045900523663 -0.021778542548418045 -0.05713394284248352 0.0324983224272728 0.028886402025818825 0.06642965227365494 -0.02051570452749729 -0.011285187676548958 0.020704833790659904 -0.0059761046431958675 -0.028333548456430435 2.0114940707571805E-4 0.003516815137118101 0.013441206887364388 0.008702998980879784 -0.0024104043841362 0.012349646538496017 0.020655933767557144 -0.02111423946917057 0.03889453783631325 -0.002899481449276209 0.02751520462334156 -0.039536409080028534 0.0030627972446382046 0.0021640416234731674 -0.0044755577109754086 0.017523271963000298 -6.347346934489906E-4 -0.016197262331843376 -0.013612650334835052 0.03155606612563133 -0.03868075832724571 0.03674086183309555 0.001622368348762393 0.004215694963932037 -3.495896817184985E-5 0.015485990792512894 0.009557636454701424 -0.006410513073205948 -0.014673416502773762 0.017382794991135597 -0.03269219771027565 0.005636482033878565 -0.0031781294383108616 -0.022743629291653633 -0.02496938593685627 0.014033913612365723 -0.02286156453192234 -0.02629120647907257 0.02238767221570015 0.0016175173223018646 -0.025133084505796432 0.0017279876628890634 0.018266355618834496 0.0035500172525644302 0.022751450538635254 8.296692976728082E-4 -0.015760961920022964 -0.03207772597670555 0.014242625795304775 0.00579723110422492 0.058449823409318924 0.011206869035959244 0.0045265136286616325 -0.005435633473098278 0.002269077580422163 5.198082071729004E-4 0.015634840354323387 0.020094187930226326
B64:YXV0aHNvY2lhbGJsb2Nr -0.051990799605846405 -0.029116230085492134 -0.004771843086928129 -0.05972800403833389 5.418327054940164E-5 -0.028860140591859818 0.05938773974776268 -0.04265791177749634 -0.05948678404092789 -0.016509197652339935 -0.026005107909440994 -0.015547983348369598 -0.01706351712346077 -0.0717507004737854 -0.06142887473106384 -0.01835312508046627 0.09217067807912827 0.03133133798837662 -0.022121703252196312 -0.03982456400990486 0.0335564948618412 0.023137591779232025 -0.0029336572624742985 0.006406252738088369 0.05191902071237564 0.04171831160783768 0.07320675998926163 -0.012876331806182861 0.03536642715334892 0.007748325355350971 -0.02006980963051319 0.09758175909519196 -0.05576617643237114 -0.0186605304479599 0.019601838663220406 -0.02413853071630001 -0.009486730210483074 -0.030988935381174088 -0.051398150622844696 -0.009822400286793709 0.05079569295048714 0.02153577096760273 -0.013333212584257126 -0.003753173165023327 0.006676253397017717 -0.001044160802848637 -0.007360657677054405 0.03383129835128784 -0.049107469618320465 0.08307043462991714 0.049605391919612885 -0.009004998952150345 8.639264706289396E-5 -0.042416952550411224 -0.027225026860833168 -0.03273633122444153 -0.04224899783730507 -0.011514953337609768 0.04291389882564545 -0.032516930252313614 -0.03334525227546692 0.06722531467676163 0.02269729971885681 -0.003199799684807658 0.0017416334012523293 -0.11960985511541367 -0.07737886160612106 0.08232458680868149 0.0575106106698513 0.014529083855450153 -0.14051970839500427 0.07347927242517471 -0.015378894284367561 -0.0260810237377882 0.09960819780826569 -0.02737417072057724 -0.037481170147657394 0.039793699979782104 -0.005967745557427406 0.022115377709269524 0.09048060327768326 -0.04691561311483383 -0.00521915452554822 0.026659447699785233 0.03840986266732216 -0.004771666135638952 0.002147031482309103 0.03302006423473358 -0.04762905836105347 0.0073289768770337105 0.033276867121458054 0.018441326916217804 0.029238684102892876 0.0525575689971447 -0.00847866665571928 0.02077721245586872 -0.007427278906106949 0.0696384459733963 0.021274346858263016 0.017799314111471176
B64:c2l6ZQ== -0.09978549927473068 -0.043755706399679184 -0.001683092792518437 -0.10134003311395645 -0.02642248012125492 -0.04610903933644295 0.08903049677610397 -0.08077976852655411 -0.09865078330039978 -0.025513676926493645 -0.06143026426434517 -0.024579618126153946 -0.025107087567448616 -0.1386096179485321 -0.10612800717353821 -0.03772050142288208 0.1628919094800949 0.06486982107162476 -0.018993651494383812 -0.08074129372835159 0.0512874610722065 0.04491496458649635 -0.0017124253790825605 9.167888201773167E-4 0.08118771016597748 0.06614077091217041 0.14841525256633759 -0.007839817553758621 0.058192722499370575 0.03183756768703461 -0.036905549466609955 0.15664929151535034 -0.08891169726848602 -0.017504721879959106 0.046173520386219025 -0.03599564731121063 -0.005489380098879337 -0.039141520857810974 -0.0880524143576622 -0.03150786831974983 0.0823046937584877 0.04335657134652138 -0.009537361562252045 -0.01015873160213232 0.009358814917504787 -0.0011517503298819065 7.657446549274027E-4 0.05065451189875603 -0.09942328929901123 0.15890616178512573 0.07404407113790512 -0.005362741183489561 -0.01193942315876484 -0.0783018097281456 -0.07350180298089981 -0.053198136389255524 -0.07462231814861298 -0.027507001534104347 0.08143072575330734 -0.06521434336900711 -0.05198432877659798 0.10860881209373474 0.030516617000102997 -0.01664193719625473 0.01884688250720501 -0.20663119852542877 -0.1607378125190735 0.142513245344162 0.09893106669187546 0.018529284745454788 -0.24633081257343292 0.13024725019931793 -0.02085573785007 -0.06130595505237579 0.1823848932981491 -0.036760974675416946 -0.058291010558605194 0.03644207864999771 -0.02413342520594597 0.038403771817684174 0.16527937352657318 -0.09713012725114822 0.007843156345188618 0.06103012338280678 0.07472427934408188 -0.011704611591994762 0.0025515840388834476 0.052141644060611725 -0.08041654527187347 0.009520296938717365 0.05599876493215561 0.027309594675898552 0.03772144764661789 0.08037147670984268 -0.011779041029512882 0.05760394036769867 -0.020637081936001778 0.10833702236413956 0.024423133581876755 0.012676123529672623
B64:bGk= 0.004585745744407177 0.0039800298400223255 0.0035960408858954906 0.00741781247779727 0.005884790327399969 0.0037722396664321423 -0.008115982636809349 0.010080655105412006 0.012942701578140259 0.008030910044908524 0.007143200840801001 0.005851134657859802 -0.006427984684705734 0.011824718676507473 0.010493911802768707 0.0037134827580302954 -0.015684887766838074 -3.3638509921729565E-4 0.002898590872064233 0.007244335021823645 -0.006430407054722309 -0.006425761617720127 0.004013272933661938 -0.0033516378607600927 -0.001016711932606995 -0.00894099660217762 -0.01803312636911869 -0.002831788966432214 -0.008361302316188812 -0.006165249273180962 0.0011553119402378798 -0.01653764583170414 0.012309218756854534 0.0038299106527119875 -0.002503093332052231 0.006434348877519369 0.005922793876379728 0.005847231950610876 0.008084828965365887 0.005309139844030142 -0.01050079520791769 -0.0023244675248861313 6.871108198538423E-4 0.0023949937894940376 -0.010671192780137062 0.002528838347643614 -0.006792418658733368 -0.004042615182697773 0.014156355522572994 -0.012328080832958221 -0.01386798545718193 -0.002332691801711917 0.0019762779120355844 0.005949181038886309 0.008539596572518349 0.004187883343547583 0.005165887530893087 0.007027315441519022 -0.0078063057735562325 3.711756435222924E-4 0.0011521470732986927 -0.006643485277891159 -0.00290355971083045 0.0061049917712807655 -0.0045599546283483505 0.014022556133568287 0.007423989474773407 -0.007478595711290836 -0.005247063934803009 -8.681011386215687E-4 0.020407414063811302 -0.010126002132892609 0.0024621770717203617 0.008048024959862232 -0.01978490501642227 0.003658284666016698 0.0044386847876012325 -4.1855534072965384E-4 -0.0021644332446157932 -0.008130780421197414 -0.0169074609875679 0.008193258196115494 0.006763702258467674 -0.010819042101502419 -0.006454798858612776 -0.003642365802079439 9.71380970440805E-4 -0.010261846706271172 0.0027062001172453165 -0.00994824804365635 -0.006397411692887545 -0.006858638022094965 -0.010394700802862644 -0.009123067371547222 -0.0016103347297757864 -0.0036102738231420517 0.0046200379729270935 -0.008993525989353657 -0.0030214693397283554 -0.005947493482381105
B64:bHBqbg== 0.01686159148812294 0.0034574363380670547 0.013228152878582478 0.0012960215099155903 -0.0023659428115934134 -0.015983203426003456 -0.001949765719473362 0.009552067145705223 0.012050767429172993 0.009840268641710281 0.0019035356817767024 -0.0018738271901383996 6.784250726923347E-4 -0.006817962042987347 0.011119450442492962 -0.008970649912953377 0.00382991717197001 0.0037599061615765095 0.016285328194499016 -0.009495222009718418 -0.002377483993768692 0.008890134282410145 -1.7845432739704847E-4 -0.011763298884034157 -0.003102111630141735 0.010383464395999908 0.005228159949183464 0.01156662404537201 0.0029779954347759485 0.0020174572709947824 0.005024844780564308 -4.3099751928821206E-4 0.007824569009244442 0.024152740836143494 -0.0018779168603941798 -0.01893770880997181 -0.017453452572226524 -0.006305735092610121 -0.0013661317061632872 -0.006076963152736425 -0.002968178829178214 0.006013255100697279 3.709911252371967E-4 0.005037009250372648 -0.0020239439327269793 0.00247778813354671 0.002321154111996293 -0.0029487868305295706 -0.0011169686913490295 0.01307127345353365 -0.005593243986368179 0.004744227044284344 -0.009771601296961308 0.014585931785404682 -3.1504794606007636E-5 -0.005003612022846937 0.008316456340253353 1.8358466331847012E-4 0.004074973054230213 0.009398913010954857 -0.003867202205583453 -0.018091272562742233 0.013235512189567089 -0.007080332841724157 -0.009317059069871902 0.002886537928134203 -0.0016230861656367779 -0.01937244087457657 -0.009222977794706821 0.014159922488033772 0.005687022116035223 -9.984118514694273E-5 0.010617236606776714 6.394831580109894E-4 -8.311084238812327E-4 0.0025845710188150406 0.0015087994979694486 -0.016571084037423134 -0.0018153574783354998 0.01579662784934044 -0.009527266025543213 0.013457965105772018 0.011904051527380943 0.006643547210842371 0.0032978232484310865 0.009618188254535198 -0.0019612025935202837 -0.0021161865442991257 -0.0027266875840723515 0.0014132376527413726 -1.3870728434994817E-4 -0.003976081497967243 -0.016410281881690025 -0.009976662695407867 -0.01270008273422718 6.850225036032498E-4 0.010519220493733883 -0.0159604512155056 -0.007207638584077358 -0.004020120948553085
B64:dnM= -0.001909727114252746 -0.009258367121219635 0.04213821887969971 -0.0418175645172596 -0.007114659063518047 -0.0398433655500412 3.205286047887057E-4 0.004680279176682234 0.004388669040054083 0.019463062286376953 -0.013535981066524982 -0.006852608174085617 -0.012372355908155441 -0.03044404461979866 -0.009408804588019848 -0.02941254898905754 0.032158952206373215 0.020376145839691162 0.022469570860266685 -0.03814093768596649 0.015912901610136032 0.032136671245098114 -0.006418104749172926 -0.02604963816702366 0.01315247267484665 0.04121536388993263 0.032853227108716965 0.02483753301203251 0.03323761001229286 -3.3809669548645616E-4 0.002675234107300639 0.024542663246393204 -0.009446082636713982 0.04227051883935928 -0.005560088437050581 -0.04506048932671547 -0.04359462112188339 -0.006621142849326134 -0.0010229875333607197 -0.024168843403458595 0.020638713613152504 0.024469416588544846 -5.420594825409353E-4 -0.0059855664148926735 -0.0017822720110416412 0.008212756365537643 0.006581202615052462 0.002141027944162488 -0.03145971521735191 0.06668209284543991 -0.015585494227707386 -2.1656090393662453E-4 -0.01958809792995453 0.006024448201060295 -0.010560393333435059 -0.019268158823251724 0.0017182627925649285 -0.010724685154855251 0.008153386414051056 0.001940942951478064 -0.02118353545665741 -0.003611153457313776 0.04736093804240227 -0.023511184379458427 -0.016820453107357025 -0.04182334616780281 -0.04255149886012077 0.010757854208350182 0.006025285925716162 0.02241022139787674 -0.028990233317017555 0.02423231676220894 0.031624935567379 -0.018685851246118546 0.04180748760700226 -0.014219777658581734 -0.0026036857161670923 -0.013813206925988197 0.007158874999731779 0.042191438376903534 0.007743367459625006 -0.003320502582937479 0.01898735947906971 0.009298083372414112 0.02671920321881771 0.008162024430930614 -0.011741573922336102 -4.7412049025297165E-4 -0.025958066806197166 0.0032106421422213316 0.0075163459405303 0.006515607237815857 -0.033636920154094696 0.0033825000282377005 -0.031189443543553352 0.0022039907053112984 0.009055862203240395 0.0019287399481981993 -0.004914959892630577 -0.011992445215582848
B64:aW5mb3JtZXJz 0.10905110836029053 0.10802929103374481 -0.12852472066879272 0.291598916053772 0.05818482115864754 0.19209428131580353 -0.13265469670295715 0.055365901440382004 0.12762844562530518 -0.027408361434936523 0.11652233451604843 0.07072161138057709 0.07689890265464783 0.29685914516448975 0.16266685724258423 0.14366911351680756 -0.36217159032821655 -0.16721241176128387 -0.06426766514778137 0.23359200358390808 -0.1270596832036972 -0.17814160883426666 0.026198934763669968 0.10714136064052582 -0.16125454008579254 -0.24866437911987305 -0.29441389441490173 -0.09480293095111847 -0.18521937727928162 -0.024701546877622604 0.04076692834496498 -0.3067648708820343 0.1567334234714508 -0.14620094001293182 -0.06965603679418564 0.21586908400058746 0.14745081961154938 0.07651486247777939 0.14924579858779907 0.11804230511188507 -0.16324225068092346 -0.16880543529987335 0.0219887625426054 0.04000616446137428 0.01770581305027008 -0.03188890963792801 -0.02716958150267601 -0.07889370620250702 0.2224399447441101 -0.43463221192359924 -0.05213049054145813 -0.025923384353518486 0.09193415939807892 0.06795232743024826 0.1286303848028183 0.17916832864284515 0.09840366989374161 0.0831867977976799 -0.1513139009475708 0.08583180606365204 0.13540655374526978 -0.11471403390169144 -0.16464437544345856 0.1329309046268463 0.018909497186541557 0.4304887354373932 0.3613879680633545 -0.19270893931388855 -0.17025601863861084 -0.09982427209615707 0.4399639964103699 -0.27411526441574097 -0.07526587694883347 0.11723096668720245 -0.3712068796157837 0.10656553506851196 0.08033706992864609 -0.021161016076803207 -8.468115702271461E-4 -0.19613125920295715 -0.2585020363330841 0.1485142856836319 -0.08747611194849014 -0.12330688536167145 -0.1884520798921585 -0.003736536717042327 0.03482341393828392 -0.07938206940889359 0.19538143277168274 -0.012803050689399242 -0.1256878674030304 -0.05349797010421753 0.0932820737361908 -0.10232234746217728 0.13935071229934692 -0.07082168757915497 -0.004219661932438612 -0.11922264099121094 -0.033986203372478485 0.03752375394105911
B64:bWluaQ== -0.004332629963755608 0.009013760834932327 -0.03818356618285179 -0.0035760763566941023 0.01320280134677887 0.013773981481790543 0.011586667969822884 -0.01156145054847002 -0.013186018913984299 -0.008748588152229786 -0.00805823877453804 0.015390112064778805 0.009418278001248837 0.008837847970426083 0.0030341907404363155 0.013437250629067421 0.006485088262706995 0.001316129695624113 7.052531000226736E-4 0.009831304661929607 0.007816561497747898 -0.0062731364741921425 0.002262753900140524 0.0076704625971615314 0.006216263864189386 -0.006755159702152014 -0.010060644708573818 -0.021214239299297333 -0.014762463979423046 0.015277408063411713 -0.0015908594941720366 0.004628187511116266 -0.013807072304189205 -0.03326374664902687 0.01505857054144144 0.013572500087320805 0.04152924567461014 -0.012194194830954075 -0.009407473728060722 0.013653718866407871 -0.0048323022201657295 -0.02054130658507347 0.004653085954487324 -0.001058362890034914 0.0016722235595807433 8.440744713880122E-4 0.001806602580472827 -2.2805588378105313E-4 0.02093241736292839 -0.024446548894047737 0.02289745956659317 0.005459944251924753 0.01491450797766447 -0.022961124777793884 -0.005070269573479891 0.010070178657770157 0.006438054144382477 0.005984329618513584 -0.004528675694018602 -0.00596855441108346 -0.010657262057065964 0.01945614255964756 -0.01975168101489544 0.014729700051248074 0.006978717632591724 0.009718542918562889 7.054535672068596E-4 0.005733277648687363 0.006079576909542084 -0.00829895306378603 -0.0027761347591876984 0.013505490496754646 -0.02256768010556698 0.00827106088399887 -6.626162794418633E-4 -0.012095959857106209 -0.01904706098139286 0.005453562363982201 -0.006365086883306503 -0.012914909049868584 0.010201902128756046 -0.00778593635186553 -0.007151980884373188 -0.007600882556289434 0.005904141813516617 -0.004287018906325102 0.003847712418064475 -0.004658127669245005 -0.014117419719696045 -0.02188529446721077 0.005457219202071428 -0.004182648379355669 0.0284012109041214 0.0012360948603600264 0.001591178704984486 -0.0038691507652401924 0.003722079796716571 0.0033389460295438766 0.005027099512517452 0.010712883435189724
B64:aW5wdXQ= -4.52742213383317E-4 0.008934498764574528 -0.03313383460044861 -0.011809761635959148 0.010586236603558064 0.0014989174669608474 0.01917843148112297 -0.010758425109088421 -0.015421131625771523 -0.0049410355277359486 -0.0023412767332047224 0.005571331828832626 0.009011133573949337 -0.0018341958057135344 -0.012487581931054592 0.004325216170400381 0.011106932535767555 0.0035430011339485645 -0.0021376002114266157 -0.0019918191246688366 0.010499096475541592 -0.007757293060421944 -0.002511546714231372 2.7337123174220324E-4 0.014697227627038956 0.00605380441993475 -0.004836572799831629 -0.0178033746778965 -0.008113264106214046 0.0127973398193717 -0.0033915655221790075 0.01691865548491478 -0.019367627799510956 -0.016183581203222275 0.016801554709672928 0.007855121046304703 0.0266397874802351 -0.013815215788781643 -0.00715996790677309 0.011683622375130653 0.004947861190885305 -0.011418703012168407 -0.004148429725319147 0.002993642119690776 0.008649419993162155 0.0031010108068585396 -6.874306127429008E-4 0.005930469371378422 0.004436912015080452 -0.002921397564932704 0.018065351992845535 0.006226321682333946 0.00772998109459877 -0.01783321239054203 -0.0057311225682497025 0.0013032912975177169 -0.002750231884419918 0.0010673319920897484 -0.004713357891887426 -0.005029661580920219 -0.007253284566104412 0.01950363628566265 -0.01796714961528778 0.006899757776409388 0.00887637585401535 -0.012453118339180946 -0.005483024287968874 0.012060797773301601 0.008766457438468933 0.0021341461688280106 -0.012089235708117485 0.012226286344230175 -0.011959572322666645 0.005934942979365587 0.007422163151204586 -0.017258524894714355 -0.008578212931752205 0.004936901852488518 -0.00531887449324131 -0.012859026901423931 0.01707502081990242 -0.004079092293977737 -0.0028038104064762592 -7.551456219516695E-4 0.013702231459319592 0.006742422468960285 0.01307728048413992 0.0017981211422011256 -0.017214473336935043 -0.01485962513834238 0.012829369865357876 0.00926693994551897 0.026417113840579987 0.005086238496005535 0.001151152653619647 0.005111768841743469 1.2760830577462912E-4 0.009482433088123798 0.0028239747043699026 0.011674275621771812
B64:YWN0aW9u -0.01281318161636591 -0.0144573412835598 -9.777063969522715E-4 -0.05277516320347786 -0.009459338150918484 -0.031070632860064507 0.03603768348693848 -0.01937558874487877 -0.022892113775014877 -0.0042381612583994865 -0.018214840441942215 -0.017807459458708763 -0.0018544490449130535 -0.04787997156381607 -0.03595999628305435 -0.02224869839847088 0.06838328391313553 0.032657191157341 0.012872203253209591 -0.043633412569761276 0.02369908057153225 0.024682505056262016 -0.004005474969744682 -0.026738107204437256 0.03328223526477814 0.038953203707933426 0.04443909227848053 0.0022899380419403315 0.03035440482199192 0.008961834013462067 -0.007836667820811272 0.06216473877429962 -0.03137043118476868 0.01495314110070467 0.021441062912344933 -0.03328403830528259 -0.01275996956974268 -0.01735932007431984 -0.02222251519560814 -0.009272567927837372 0.03893650695681572 0.01482989639043808 0.004390997812151909 0.001207644701935351 0.011824008077383041 0.00480332737788558 0.011060629971325397 0.008096094243228436 -0.040960486978292465 0.07397937029600143 0.025769753381609917 0.005175648257136345 -0.004031057469546795 -0.015547106973826885 -0.0327162966132164 -0.03045041672885418 -0.014018821530044079 -0.01685735210776329 0.02509830892086029 -0.013120194897055626 -0.024752147495746613 0.02741328440606594 0.018677860498428345 -0.02664605714380741 0.0058492026291787624 -0.06705566495656967 -0.07477228343486786 0.03199273347854614 0.03284939378499985 0.01567797362804413 -0.0873173326253891 0.061116475611925125 0.007205633446574211 -0.01092130970209837 0.06830557435750961 -0.01899799332022667 -0.017132367938756943 -0.0024450402706861496 -0.008415446616709232 0.032471757382154465 0.0541558563709259 -0.03418183699250221 0.01182645559310913 0.016074810177087784 0.034377142786979675 0.010620531626045704 -0.002926102140918374 0.010279799811542034 -0.047815535217523575 -0.00279805064201355 0.03136865794658661 0.017269330099225044 0.004353949334472418 0.016168372705578804 -0.03135883808135986 0.018190713599324226 0.0016637914814054966 0.028641926124691963 0.012381183914840221 0.003864535829052329
B64:aXRlbQ== 0.05504472553730011 0.06782165169715881 -0.09577920287847519 0.1603778898715973 0.039969850331544876 0.1148812472820282 -0.06270990520715714 0.023680008947849274 0.06134428456425667 -0.013815445825457573 0.0639779195189476 0.0470929816365242 0.045318491756916046 0.17226217687129974 0.09599161893129349 0.09270665794610977 -0.20873242616653442 -0.0943160131573677 -0.032148219645023346 0.13679993152618408 -0.05938353389501572 -0.10700273513793945 0.017363067716360092 0.05654250457882881 -0.08505889773368835 -0.1394096314907074 -0.165220707654953 -0.054020654410123825 -0.09987681359052658 -0.010564126074314117 0.02518933080136776 -0.1711411029100418 0.0829528197646141 -0.09587133675813675 -0.03599468246102333 0.1340748369693756 0.10104697942733765 0.03618409112095833 0.07901345193386078 0.07243523001670837 -0.10477445274591446 -0.09735026210546494 0.017317725345492363 0.021841052919626236 0.012110818177461624 -0.014172091148793697 -0.02265208028256893 -0.038371358066797256 0.13784945011138916 -0.2577359676361084 -0.01944548264145851 -0.007214432116597891 0.051551416516304016 0.025565195828676224 0.07885590940713882 0.10409807413816452 0.04617730528116226 0.04780928045511246 -0.0849909856915474 0.044398918747901917 0.07139313966035843 -0.053172558546066284 -0.10432487726211548 0.08590121567249298 0.017491554841399193 0.2425709366798401 0.20200152695178986 -0.10816434770822525 -0.09343046694993973 -0.051971714943647385 0.24767765402793884 -0.1466471403837204 -0.05159331485629082 0.06806433945894241 -0.21360628306865692 0.061752304434776306 0.03673853725194931 -0.013991918414831161 -0.005501075182110071 -0.11779547482728958 -0.13973185420036316 0.07536651939153671 -0.06009412929415703 -0.06692031770944595 -0.09964288026094437 -0.009868674911558628 0.024984421208500862 -0.04352539777755737 0.10702783614397049 -0.007652368862181902 -0.06676638126373291 -0.027067124843597412 0.06341284513473511 -0.059260375797748566 0.08615972846746445 -0.04272298142313957 3.4545952803455293E-4 -0.07664798200130463 -0.011212119832634926 0.029156779870390892
B64:dmlldw== -0.05045684427022934 -0.02589374966919422 0.010420534759759903 -0.00192605284973979 -0.009966472163796425 0.011187061667442322 -0.0015635078307241201 -0.03555488958954811 -0.034257907420396805 -0.021662436425685883 0.004422192461788654 -0.0017285452922806144 -0.008916107006371021 -0.029763570055365562 -0.030461197718977928 0.0028630243614315987 0.020758189260959625 -0.0053911106660962105 -0.027574680745601654 0.018023451790213585 -0.01619711145758629 -0.016092810779809952 0.007805788889527321 0.026209499686956406 0.0034097128082066774 -0.03663202375173569 0.03314672037959099 -0.01938268169760704 -4.80791088193655E-4 -0.009162052534520626 -0.0170114878565073 0.03616912290453911 -0.002574120182543993 -0.030449477955698967 -0.010013550519943237 0.006356167607009411 -0.0029493679758161306 0.006986425258219242 -0.005469895899295807 -0.005702759139239788 0.03144155070185661 0.0037280910182744265 -0.010088197886943817 -0.0026893059257417917 0.003032772336155176 -0.02279854193329811 -0.0158293005079031 0.02926567569375038 -0.02544495277106762 0.023304931819438934 0.00386421219445765 -0.019849706441164017 0.00958994496613741 -0.016955412924289703 -0.01700953207910061 0.006764025427401066 -0.028110194951295853 0.007290766574442387 0.02786041796207428 -0.0108496630564332 -0.0034492642153054476 0.03310409560799599 -0.003270227462053299 0.014584137126803398 0.003708846401423216 -0.052640847861766815 -0.01595710963010788 0.055882301181554794 0.029382115229964256 -0.02532859332859516 -0.05425571650266647 0.005654327571392059 -0.008297421969473362 -0.017626279965043068 0.0323629193007946 0.01742643676698208 -0.00948287546634674 0.03824808821082115 -0.00318600470200181 -0.006138453260064125 0.02974390611052513 -0.029696565121412277 -0.010581252165138721 0.0024783448316156864 -0.020011484622955322 -0.01846502535045147 -0.023561768233776093 0.010356375947594643 0.014365927316248417 0.0315285250544548 -0.02140301652252674 -0.0030445633456110954 0.01975848712027073 0.04654405266046524 0.025636084377765656 0.02808687463402748 -0.029994094744324684 0.05006195977330208 1.0746651969384402E-4 0.010297045111656189
B64:YWxlcnQ= -0.03411485254764557 -0.026206737384200096 0.027206474915146828 -0.06779476255178452 -0.017979247495532036 -0.04424053058028221 0.03364892303943634 -0.021212559193372726 -0.029300862923264503 7.738728891126812E-5 -0.02746003307402134 -0.021855728700757027 -0.017089271917939186 -0.07573964446783066 -0.04730568081140518 -0.0405447781085968 0.08942356705665588 0.05062790587544441 0.010178075172007084 -0.06813905388116837 0.0337553471326828 0.05441201478242874 -0.005391739308834076 -0.03305036574602127 0.043779220432043076 0.06821546703577042 0.08247381448745728 0.02437495067715645 0.04984573274850845 0.00505816750228405 -0.015925785526633263 0.07514554262161255 -0.049153029918670654 0.045381177216768265 0.017789965495467186 -0.053580157458782196 -0.03431933373212814 -0.024540238082408905 -0.03641892224550247 -0.020416103303432465 0.04824109375476837 0.04259616136550903 0.0018340845126658678 -0.010455147363245487 -0.0034507173113524914 0.014250287786126137 0.0068109589628875256 0.021213335916399956 -0.06310981512069702 0.11467297375202179 0.01084909401834011 0.011601245030760765 -0.02692340686917305 -0.02381841093301773 -0.034683410078287125 -0.04492839798331261 -0.03338494896888733 -0.024800974875688553 0.03974892944097519 -0.02579895406961441 -0.038050517439842224 0.02906040847301483 0.03688383102416992 -0.0405203215777874 0.005163548514246941 -0.11489797383546829 -0.10528607666492462 0.05144422501325607 0.04712647199630737 0.017165284603834152 -0.12294917553663254 0.08219839632511139 0.016635118052363396 -0.02672400139272213 0.09533149003982544 -0.028267424553632736 -0.01850849762558937 -3.195212339051068E-4 0.0010533122112974524 0.04833154380321503 0.07228698581457138 -0.035395774990320206 0.01998985931277275 0.034182317554950714 0.05492705851793289 -0.005291337613016367 0.002845637733116746 0.013627423904836178 -0.05032205954194069 -0.001234483323059976 0.031010763719677925 0.016786718741059303 -0.024459339678287506 0.019430091604590416 -0.03946155309677124 0.024941502138972282 0.0052225482650101185 0.04073391854763031 0.012062945403158665 -0.012816524133086205
B64:Y29udHJvbA== 0.015669183805584908 0.006726116873323917 -0.003598452778533101 0.01443530898541212 0.001651654951274395 0.0035426116082817316 -0.010641113854944706 0.016393493860960007 0.01755022071301937 0.0032341652549803257 0.009366581216454506 9.541827021166682E-4 0.0034607304260134697 0.018999285995960236 0.011243007145822048 0.0037254097405821085 -0.026179928332567215 -0.00757763534784317 0.001347484765574336 0.006882570218294859 -0.011670914478600025 -0.0043764072470366955 0.0040725297294557095 0.0031964541412889957 -0.011900615878403187 -0.009715519845485687 -0.018005065619945526 0.005954721476882696 -0.012758256867527962 -0.004479635041207075 0.005529164336621761 -0.026307661086320877 0.014746583066880703 -5.954339867457747E-4 -0.009639386087656021 0.0022385339252650738 0.004111546091735363 0.0013795786071568727 0.019261827692389488 0.005085810087621212 -0.014175118878483772 -0.007525324821472168 0.004554152023047209 7.448190590366721E-4 -0.004292779136449099 -0.005462342873215675 0.003982261288911104 -0.009378059767186642 0.016366563737392426 -0.018577542155981064 -0.007533314637839794 4.656337478081696E-5 0.0010297388071194291 0.012866864912211895 0.007298171985894442 0.008315088227391243 0.015328570269048214 -0.0032245302572846413 -0.014132915064692497 0.008464161306619644 0.015602529980242252 -0.018593713641166687 -0.009356613270938396 0.006021060980856419 -0.007674804423004389 0.02754167653620243 0.02679440937936306 -0.01710386574268341 -0.02183980867266655 0.003066776320338249 0.03928298503160477 -0.015200896188616753 -0.0014240015298128128 0.010484045371413231 -0.019952652975916862 0.0065408023074269295 0.014538627117872238 -0.0013087396509945393 0.0032642169389873743 -0.0013370951637625694 -0.02901194989681244 0.00791354849934578 0.002323868917301297 -0.0042354026809334755 -0.015491578727960587 0.01016219612210989 -0.006442404817789793 -6.000905996188521E-4 0.010124568827450275 -0.0014117833925411105 -0.012504536658525467 -0.0012951594544574618 -0.002648350317031145 -0.00935773178935051 0.004946453962475061 -0.009936531074345112 0.004065700341016054 -0.009364909492433071 -0.0024512263480573893 3.801766433753073E-4
B64:c3VnZ2VzdA== 0.028348958119750023 0.02528354525566101 -0.026597125455737114 0.021132009103894234 0.003947797231376171 0.0014424507971853018 -0.010534610599279404 0.011267049238085747 0.010076241567730904 0.0015857062535360456 0.012694952078163624 0.012535818852484226 0.014500009827315807 0.033785056322813034 0.019634542986750603 0.015352213755249977 -0.025727150961756706 -0.013082101009786129 0.016187652945518494 0.005056442692875862 0.005089034326374531 0.0028698823880404234 -0.0032409115228801966 -0.010697459802031517 -0.004694058559834957 -0.0020036061760038137 -0.037593238055706024 -0.0035168109461665154 -0.02082068845629692 0.009400843642652035 0.0050401510670781136 -0.02004156820476055 0.008084218949079514 -0.012541565112769604 0.002406391780823469 0.004986804444342852 0.016864236444234848 -0.007078988011926413 0.0065168277360498905 0.009631665423512459 -0.013167249038815498 -0.02059236541390419 0.014919699169695377 -0.001908167963847518 0.0069365426898002625 0.005438805557787418 0.006213437300175428 -0.012461666949093342 0.018030337989330292 -0.03875467926263809 -3.604002413339913E-4 0.003937373869121075 0.004274044185876846 0.002404848113656044 0.005613022483885288 0.009432370774447918 0.018753627315163612 0.0049165403470396996 -0.010796720162034035 0.020406324416399002 0.004638895392417908 -0.015338089317083359 -0.017855238169431686 3.7084464565850794E-4 0.003019933355972171 0.04446594417095184 0.013093209825456142 -0.030965324491262436 -0.013108855113387108 0.001932487590238452 0.04017399623990059 -0.009432974271476269 -0.004608991090208292 0.014208819717168808 -0.03954372927546501 -0.0038723619654774666 0.0052802469581365585 -0.016344083473086357 -0.002203098963946104 -0.011216547340154648 -0.02305622771382332 0.007890334352850914 -0.0035057796631008387 -0.010613095946609974 5.209583323448896E-4 0.011064723134040833 0.004987285938113928 -0.02117311581969261 0.006179782096296549 -0.010018846020102501 3.660843358375132E-4 4.7172512859106064E-4 0.006046530790627003 -0.024127403274178505 -0.012572577223181725 -0.010312210768461227 0.013518670573830605 -0.033307433128356934 -0.007564891595393419 0.00815491657704115
B64:cGlubmVk -0.04533948749303818 -9.756298386491835E-4 -0.05480629950761795 -0.01109925378113985 0.023895535618066788 0.028742413967847824 0.04582321271300316 -0.06592922657728195 -0.04586184397339821 -0.02989502064883709 -0.018455248326063156 0.014864061959087849 4.510886501520872E-4 -0.01786985993385315 -0.03021417185664177 0.02397359348833561 0.02269016206264496 -0.0050590792670845985 -0.03837154060602188 0.017508527263998985 0.020413029938936234 -0.04084496572613716 -0.002198153641074896 0.03983784466981888 0.0125895906239748 -0.008097697980701923 0.03489913046360016 -0.0464804470539093 -0.009071365930140018 0.03128768503665924 -0.02389816753566265 0.032194606959819794 -0.030601467937231064 -0.06801328808069229 0.03545228764414787 0.056416019797325134 0.06534184515476227 0.003529526526108384 -0.03656682372093201 0.018532022833824158 -8.526995661668479E-4 -0.009566077031195164 -1.7015068442560732E-4 1.5554875426460057E-4 0.004394566640257835 -0.0028575435280799866 -0.02151630073785782 0.03668550029397011 0.0056718336418271065 -0.029044708237051964 0.059981197118759155 -0.008629301562905312 0.015384212136268616 -0.04704266041517258 -0.0011839030776172876 0.00423378637060523 -0.029785480350255966 0.006601305678486824 0.014308877289295197 -0.04601500183343887 -0.01030790526419878 0.06432458758354187 -0.056340958923101425 0.0318579375743866 0.027419133111834526 -0.03916463628411293 -0.00713013019412756 0.0594240240752697 0.041167959570884705 -0.021027490496635437 -0.0683031752705574 0.036944691091775894 -0.053097162395715714 0.006763440556824207 0.03511657193303108 -0.009883992373943329 -0.04727610945701599 0.035721555352211 -0.022035663947463036 -0.03689030930399895 0.06556104868650436 -0.033993352204561234 -0.031981922686100006 0.0051224674098193645 0.017879458144307137 -0.02360825426876545 0.013662059791386127 0.017413411289453506 -0.009147562086582184 -0.005080136936157942 0.025108331814408302 -0.0053671421483159065 0.05430552363395691 0.031486596912145615 0.03371090814471245 0.015168539248406887 -0.026505865156650543 0.02995172329246998 0.020407546311616898 0.024832047522068024
B64:cHJvdmlkZXI= -0.05256257951259613 -0.03772064670920372 0.04304705187678337 -0.07320018112659454 -0.02112724632024765 -0.04628906399011612 0.02712191641330719 -0.03984687477350235 -0.04001374915242195 -0.003930433187633753 -0.014076664112508297 -0.006579449400305748 -0.02273484691977501 -0.08092419058084488 -0.06181037053465843 -0.029233641922473907 0.09351925551891327 0.034271981567144394 -0.01358741708099842 -0.03782837092876434 0.025615248829126358 0.028736842796206474 -0.006916179321706295 -0.0022554697934538126 0.049130629748106 0.03652312979102135 0.07183922827243805 0.010227864608168602 0.04596581682562828 -0.008027428761124611 -0.012289096601307392 0.08709471672773361 -0.03876667097210884 0.02419256791472435 0.01123974658548832 -0.05617575719952583 -0.041299331933259964 -0.01804768480360508 -0.04762697219848633 -0.018865466117858887 0.05413862690329552 0.050231970846652985 -0.01627182960510254 -0.007288223598152399 -0.008135417476296425 -0.00548964086920023 -0.013112906366586685 0.03488170728087425 -0.06625619530677795 0.1169491857290268 0.01529715582728386 -0.009819867089390755 -0.01838875003159046 -0.02773861214518547 -0.03762877732515335 -0.04347807541489601 -0.031728941947221756 -0.007106652017682791 0.04059657081961632 -0.026049362495541573 -0.037382543087005615 0.04963210970163345 0.03900664672255516 -0.024868106469511986 -0.013524946756660938 -0.1302107870578766 -0.08618024736642838 0.0851668119430542 0.06564600765705109 0.006265989039093256 -0.12958607077598572 0.07085917890071869 0.0037170075811445713 -0.05003379285335541 0.10859757661819458 -0.030098915100097656 -0.03415870666503906 0.03695203736424446 0.00846748799085617 0.03446294739842415 0.07387271523475647 -0.04186186194419861 0.02351674996316433 0.03242998570203781 0.04574445262551308 -0.017325811088085175 -0.019420679658651352 0.028568068519234657 -0.03457606956362724 0.004929452668875456 0.011935518123209476 0.0025792077649384737 -0.008373956196010113 0.05155723914504051 -0.016375113278627396 0.03517467528581619 -0.013322566635906696 0.06655213236808777 0.002322348766028881 0.006554991006851196
B64:ZGlzdA== -0.07880809903144836 -0.04919499158859253 0.003947042860090733 -0.12611353397369385 -0.022731781005859375 -0.044934678822755814 0.0881984606385231 -0.07279621809720993 -0.08739087730646133 -0.02120858244597912 -0.062350399792194366 -0.037243202328681946 -0.03235233947634697 -0.1382947564125061 -0.09879466891288757 -0.04495296627283096 0.16830088198184967 0.06902088969945908 -0.007610455621033907 -0.09419386833906174 0.0695447325706482 0.04001382365822792 -0.01599673554301262 -0.016578195616602898 0.07937642186880112 0.09422574192285538 0.15194278955459595 -0.012670919299125671 0.07291603833436966 0.03672356903553009 -0.03760405629873276 0.15527379512786865 -0.09534578025341034 0.0029809430707246065 0.0492689423263073 -0.04641331359744072 -0.011013447307050228 -0.029690084978938103 -0.08816222101449966 -0.019566934555768967 0.07669223099946976 0.05532752349972725 -0.006741808261722326 -0.00402484554797411 0.009602357633411884 0.013415079563856125 -0.0043944488279521465 0.051202818751335144 -0.0976092517375946 0.15751370787620544 0.07183893769979477 0.01117250882089138 -0.013366619125008583 -0.06591147184371948 -0.06405723839998245 -0.06547234207391739 -0.07090310007333755 -0.03032447211444378 0.07685228437185287 -0.07884228229522705 -0.06133463606238365 0.103825144469738 0.024231815710663795 -0.03186766058206558 0.024584786966443062 -0.21856805682182312 -0.15725483000278473 0.1412719041109085 0.09770122170448303 0.022867219522595406 -0.24976301193237305 0.14561805129051208 -0.014385814778506756 -0.04262092337012291 0.18854795396327972 -0.043028779327869415 -0.05603107437491417 0.041892826557159424 -0.01772375963628292 0.04889748618006706 0.16292960941791534 -0.09426641464233398 0.015313887968659401 0.0695299580693245 0.09463018923997879 -0.018899867311120033 0.006202363409101963 0.047367163002491 -0.07891464978456497 2.4783854314591736E-5 0.061471886932849884 0.03406165540218353 0.020129654556512833 0.07557561248540878 -0.03587894141674042 0.05519448220729828 -0.02072073519229889 0.0888039693236351 0.030360020697116852 0.003204552223905921
B64:aWNvbg== -0.05519207939505577 -0.022289613261818886 -0.011862324550747871 -0.0977407842874527 -0.009691489860415459 -0.032728128135204315 0.07761041820049286 -0.06268695741891861 -0.05906427279114723 -0.018044637516140938 -0.041809290647506714 -0.02154717594385147 -0.021577294915914536 -0.10686534643173218 -0.07131527364253998 -0.02733164280653 0.1205548495054245 0.049445707350969315 -0.007230718154460192 -0.06925110518932343 0.061721742153167725 0.030631765723228455 -0.009783130139112473 -0.01890644244849682 0.06994564086198807 0.07111652940511703 0.10504529625177383 -0.017367340624332428 0.04133915156126022 0.028366105630993843 -0.021026207134127617 0.10902722924947739 -0.08642908930778503 -0.002150289947167039 0.05266036093235016 -0.022701505571603775 0.0067115467973053455 -0.024692267179489136 -0.0661582425236702 -0.00935981422662735 0.05089706927537918 0.037219319492578506 -0.011864133179187775 -0.006219298113137484 0.016846343874931335 0.009597807191312313 0.008519044145941734 0.04112214222550392 -0.07188878208398819 0.1109267845749855 0.0651351660490036 0.00540911452844739 -0.008980155922472477 -0.05810188129544258 -0.049650754779577255 -0.04907970875501633 -0.044681746512651443 -0.02956973947584629 0.05233479291200638 -0.06565486639738083 -0.048994045704603195 0.07434939593076706 0.013690966181457043 -0.025475051254034042 0.022569140419363976 -0.15467891097068787 -0.11795210838317871 0.0981484204530716 0.07487744837999344 0.012664934620261192 -0.17891553044319153 0.11558455973863602 -0.022199593484401703 -0.028967726975679398 0.13712431490421295 -0.04929512366652489 -0.05293197184801102 0.02716444432735443 -0.016823118552565575 0.026418209075927734 0.1280563771724701 -0.0689409151673317 0.00474404776468873 0.05349092185497284 0.08405718952417374 -0.012308926321566105 0.022876905277371407 0.042809102684259415 -0.07236108928918839 -0.01023897249251604 0.04943513870239258 0.021868200972676277 0.023189278319478035 0.05308232456445694 -0.030192729085683823 0.037545811384916306 -0.010398716665804386 0.06603383272886276 0.02321426011621952 0.007401020731776953
B64:c2VydmljZXM= -0.0420888215303421 0.011776319704949856 -0.07329543679952621 0.007541973143815994 0.02693144604563713 0.04908320680260658 0.0361197367310524 -0.05718877539038658 -0.049566175788640976 -0.04522218555212021 -0.010012603364884853 0.018097005784511566 0.01031550019979477 0.0026232930831611156 -0.018462080508470535 0.028482358902692795 1.8929297220893204E-4 -0.00403659837320447 -0.050164446234703064 0.03940944746136665 0.00888072419911623 -0.03550299257040024 0.007513698190450668 0.048626020550727844 0.006028798874467611 -0.03318633884191513 0.011430957354605198 -0.05071467533707619 -0.020183328539133072 0.02571336179971695 -0.00805575866252184 0.016559382900595665 -0.026418276131153107 -0.08109445124864578 0.024217750877141953 0.06134399399161339 0.06734958291053772 -0.01679384335875511 -0.03178536519408226 0.0231397096067667 -0.010479169897735119 -0.030009320005774498 -2.3849148419685662E-4 0.005388367921113968 0.015290471725165844 0.00386431603692472 -0.026889460161328316 0.030052516609430313 0.031736887991428375 -0.04676714912056923 0.0529218427836895 -0.007828048430383205 0.02383160963654518 -0.043993569910526276 0.004442546050995588 0.022824136540293694 -0.011725367046892643 0.0195558350533247 -0.0013930059503763914 -0.03366611897945404 -0.006721386685967445 0.05784416198730469 -0.057977788150310516 0.057044871151447296 0.010694671422243118 -0.0066106608137488365 0.01595149375498295 0.06096743792295456 0.029990434646606445 -0.011895904317498207 -0.0277206152677536 0.01240801252424717 -0.06349065154790878 0.011224205605685711 0.004534795414656401 -0.00689354632049799 -0.040654901415109634 0.05536605790257454 -0.013536699116230011 -0.05700939893722534 0.05029554292559624 -0.016449520364403725 -0.04210697486996651 -0.0010484943632036448 -0.004782435949891806 -0.018920551985502243 0.02106410637497902 0.01787020079791546 -0.0016338612185791135 -0.010260547511279583 0.02137209288775921 -0.00631561316549778 0.06988675892353058 0.027736680582165718 0.04525905102491379 -0.002358485711738467 -0.024617839604616165 0.03903520479798317 0.02707669883966446 0.03469604626297951
B64:c3RyaXBl -0.08774347603321075 -0.04789895936846733 -0.0018656763713806868 -0.13557866215705872 -0.025344494730234146 -0.05078480392694473 0.08956628292798996 -0.07903313636779785 -0.08579371124505997 -0.015236449427902699 -0.05811292678117752 -0.039110712707042694 -0.029827188700437546 -0.15397849678993225 -0.10294446349143982 -0.0405871607363224 0.1692119687795639 0.0667295977473259 -0.004486059304326773 -0.09660256654024124 0.0768846869468689 0.052322763949632645 -0.01566026173532009 -0.020210223272442818 0.07815105468034744 0.09836623072624207 0.15986965596675873 -0.01646239496767521 0.07544457912445068 0.032676272094249725 -0.039166614413261414 0.164412260055542 -0.10822000354528427 0.012032819911837578 0.05441506206989288 -0.046412963420152664 -0.011841925792396069 -0.029336752369999886 -0.08691351115703583 -0.0322524718940258 0.0735572800040245 0.06335687637329102 -0.006576497107744217 -0.0036618891172111034 0.0033240753691643476 0.01771414279937744 0.007745509967207909 0.0585404708981514 -0.09847233444452286 0.17277583479881287 0.07303740084171295 0.0012623139191418886 -0.008460206910967827 -0.07669038325548172 -0.07149951905012131 -0.07592756301164627 -0.06590136140584946 -0.03546661138534546 0.07523555308580399 -0.08604860305786133 -0.068013995885849 0.10566896200180054 0.02812330238521099 -0.04009629413485527 0.019415024667978287 -0.22719472646713257 -0.16135120391845703 0.13714377582073212 0.10907351970672607 0.019673151895403862 -0.2549995481967926 0.1504168063402176 -0.011182965710759163 -0.050471462309360504 0.1970224678516388 -0.05516617000102997 -0.06304053962230682 0.033831652253866196 -0.019034238532185555 0.05529719591140747 0.17368513345718384 -0.10309376567602158 0.007903196848928928 0.06696799397468567 0.09887665510177612 -0.01370769739151001 0.014179369434714317 0.0572354719042778 -0.0902387797832489 0.007805232424288988 0.06825666129589081 0.03487399220466614 0.013586928136646748 0.07312581688165665 -0.04220817983150482 0.05614940822124481 -0.0217442587018013 0.10071475058794022 0.026433326303958893 0.005297488998621702
B64:YW1weg== 0.021194055676460266 0.018652984872460365 -0.020793868228793144 0.0616983100771904 0.01377349253743887 0.03785426914691925 -0.038101837038993835 0.027128728106617928 0.023411335423588753 -0.005562434904277325 0.02108423225581646 0.014662312343716621 0.007477282080799341 0.06700397282838821 0.03166119381785393 0.03891324996948242 -0.08820898830890656 -0.032944969832897186 -0.013393852859735489 0.05640349164605141 -0.04008506238460541 -0.03891369327902794 0.0062894681468605995 0.02082313969731331 -0.04581472650170326 -0.05752573907375336 -0.0708642229437828 -0.017545845359563828 -0.042418744415044785 -0.012583835981786251 0.007532045245170593 -0.07056441158056259 0.040281523019075394 -0.02972061187028885 -0.017656683921813965 0.0357552170753479 0.022325262427330017 0.021718600764870644 0.03807765245437622 0.025409135967493057 -0.0398625023663044 -0.03351662680506706 0.003050251631066203 0.006181672681123018 -0.003772428259253502 -0.01298817340284586 -0.008127784356474876 -0.020511776208877563 0.04212764650583267 -0.08809240907430649 -0.014552099630236626 -0.005761945620179176 0.014450352638959885 0.02977128140628338 0.027798088267445564 0.04202345013618469 0.017068980261683464 0.020731309428811073 -0.0335778072476387 0.018292659893631935 0.03453614190220833 -0.024129772558808327 -0.03318258374929428 0.023494143038988113 0.001125572482123971 0.09323751926422119 0.08270140737295151 -0.045039206743240356 -0.04385750740766525 -0.01702720671892166 0.09961050748825073 -0.06355053186416626 -0.012584999203681946 0.027448972687125206 -0.08941729366779327 0.02374127320945263 0.019061509519815445 -0.00425400584936142 9.051930974237621E-4 -0.035130538046360016 -0.06308731436729431 0.03788463771343231 -0.010552776046097279 -0.027603693306446075 -0.047782570123672485 0.001535538351163268 -0.002669533481821418 -0.01994257979094982 0.048909276723861694 0.008606254123151302 -0.039596077054739 -0.00933306198567152 0.012062187306582928 -0.013663901016116142 0.03264983743429184 -0.019759193062782288 -0.009103978052735329 -0.031062031164765358 -0.016615429893136024 0.00910787470638752
B64:bA== -0.05439256504178047 -0.03784911334514618 0.030109142884612083 -0.051621805876493454 -0.01955692283809185 -0.029404086992144585 0.02256561815738678 -0.0346536859869957 -0.04697905853390694 -0.00749655906111002 -0.01609470695257187 -0.00997559167444706 -0.028292862698435783 -0.0767216607928276 -0.049561306834220886 -0.017248382791876793 0.08810131251811981 0.023356106132268906 0.003673952305689454 -0.03375374153256416 0.02263598144054413 0.02976568602025509 0.0013783074682578444 0.005145888309925795 0.02481619268655777 0.019255222752690315 0.07087653130292892 0.00925865862518549 0.03667723760008812 -0.003093539737164974 -0.01277945563197136 0.08350761979818344 -0.03278911113739014 0.006376917008310556 0.005652810446918011 -0.045230135321617126 -0.03176048398017883 -0.025193454697728157 -0.0372626967728138 -0.027948368340730667 0.04680044576525688 0.03762431442737579 0.0022810734808444977 -0.013273999094963074 9.142641793005168E-4 -0.009099461138248444 -0.014800037257373333 0.019972050562500954 -0.05369054898619652 0.08518418669700623 0.008808157406747341 -0.0035040779039263725 -0.005823941435664892 -0.031086605042219162 -0.03449692577123642 -0.0213019922375679 -0.032356783747673035 -0.004833536222577095 0.04626799002289772 -0.02743944711983204 -0.03214842453598976 0.04771403595805168 0.034486524760723114 -0.011427455581724644 -0.00818683858960867 -0.10934668779373169 -0.07317938655614853 0.08161730319261551 0.06180329993367195 0.0013293314259499311 -0.12043939530849457 0.05413121357560158 0.006364910397678614 -0.04067160561680794 0.09479331970214844 -0.016050681471824646 -0.030343813821673393 0.03000582382082939 -0.0033222544007003307 0.03531530871987343 0.06560657918453217 -0.049147479236125946 0.010666166432201862 0.01482769288122654 0.02465699054300785 -0.015397856011986732 -0.025831246748566628 0.012685217894613743 -0.026035983115434647 0.01618555746972561 0.00693497946485877 -0.005006823688745499 -0.013113198801875114 0.05219799652695656 -0.0061219604685902596 0.02491171285510063 -0.0261369775980711 0.057557784020900726 0.00878073275089264 0.007687720004469156
B64:bnhn 7.071175787132233E-5 -0.009837577119469643 0.008049164898693562 -0.014742177911102772 -0.001327394973486662 -0.006804324220865965 0.0016600064700469375 4.291159566491842E-4 -3.4646509448066354E-5 0.0018864416051656008 -0.004557279869914055 -0.008804668672382832 -0.0035554561764001846 -0.013641580007970333 -0.008311995305120945 -0.003979112021625042 0.016892408952116966 0.007738026324659586 -0.001396898296661675 -0.007759077940136194 0.0018081279704347253 0.01417164783924818 -0.006184758618474007 -0.0033300011418759823 0.00857879314571619 0.018180690705776215 0.008826974779367447 -2.077333047054708E-4 0.011682357639074326 0.004681308753788471 8.21681460365653E-4 0.009265489876270294 -0.010040830820798874 0.01264134794473648 0.005048060789704323 -0.0075112697668373585 -0.0064820232801139355 -0.005648973397910595 -0.0031647877767682076 -0.005500384606420994 0.0038127165753394365 0.013595864176750183 0.0010653475765138865 7.508605485782027E-4 -0.004674270283430815 -0.001979292370378971 0.006497179623693228 0.004215891007333994 -0.010676399804651737 0.013952350243926048 -0.0046606361865997314 0.0036458622198551893 -0.009306782856583595 -0.0037229338195174932 -0.0065481774508953094 -0.006185220088809729 -0.004046089947223663 -0.0017116126837208867 0.0030567534267902374 -0.011677110567688942 -0.008733447641134262 0.0024542631581425667 0.01044669933617115 -0.006199799012392759 0.004215197172015905 -0.014833875000476837 -0.010804886929690838 0.006200768053531647 0.01100041251629591 -0.002006703056395054 -0.01942072995007038 0.009992635808885098 -0.0010161373065784574 -6.55815820209682E-4 0.011513539589941502 -4.257874679751694E-4 -1.6266919556073844E-4 0.0015362495323643088 0.0014360557543113828 0.008887105621397495 0.007999972440302372 -0.010730421170592308 0.0033678365871310234 0.004028073512017727 0.012719114311039448 -1.4100891712587327E-4 -0.0049262563697993755 0.004756643436849117 -0.013559108600020409 -0.008079753257334232 0.002215273678302765 0.006656969431787729 -0.010829630307853222 0.005380014423280954 -0.008077045902609825 0.006494190078228712 0.0020582799334079027 0.00809125229716301 0.0011641973396763206 -0.0020962448325008154
B64:c2xpZGVy 0.0017287626396864653 -0.003911800216883421 0.009859880432486534 -0.01613299362361431 0.0023167075123637915 -0.016849320381879807 0.0037941844202578068 -0.003826000727713108 -0.00911611970514059 9.378663962706923E-4 -0.005709133110940456 -0.005433722399175167 -0.002705556573346257 -0.01780894212424755 -0.004806046839803457 -0.014303491450846195 0.017660614103078842 0.006884549278765917 0.007062036078423262 -0.01315135695040226 0.012888615019619465 0.007953251712024212 7.415207801386714E-4 -0.007085369434207678 0.011186941526830196 0.015049946494400501 0.012318273074924946 0.009697483852505684 0.004486760590225458 -0.0016882935306057334 0.004195453133434057 0.017166294157505035 -0.004946673754602671 0.012689600698649883 0.003944625146687031 -0.016800664365291595 -0.010851922444999218 -0.0088005680590868 -0.006951402872800827 -0.006375434808433056 0.005605496931821108 0.009535497985780239 -0.0038692927919328213 -0.0024640639312565327 -0.0056062666699290276 -5.4059928515926E-4 -0.001270366832613945 1.3830811076331884E-4 -0.012027349323034286 0.025150788947939873 0.006446652114391327 -2.2959201305639E-4 -0.002508973702788353 -0.006851039361208677 -0.001997211715206504 -0.010133256204426289 -0.004053592216223478 -0.0035738698206841946 0.00637244526296854 -0.006642831955105066 -0.013208439573645592 0.005119491368532181 0.016131974756717682 -0.0061509315855801105 -0.002291770651936531 -0.015109376050531864 -0.02479165606200695 0.011601986363530159 0.011985810473561287 0.011459412053227425 -0.02686752751469612 0.017101533710956573 0.0042039486579597 -0.009027480147778988 0.019713355228304863 -0.010702626779675484 -0.004542684182524681 -5.812690360471606E-4 0.0015536160208284855 0.015457918867468834 0.011589041911065578 -3.7490588147193193E-4 0.008404373191297054 9.871289366856217E-4 0.01926218532025814 0.0032401655334979296 -0.0010914442827925086 0.0036883640568703413 -0.018134141340851784 1.1924391583306715E-4 0.009929927997291088 -1.4491178444586694E-4 -0.006226520054042339 0.0028585956897586584 -0.007227882742881775 -1.800128084141761E-4 0.003909990191459656 -0.001302230404689908 0.006149082910269499 -6.065014749765396E-4
B64:aW1hZ2U= -0.02676679752767086 -0.011762277223169804 -0.014059342443943024 -0.04887602478265762 0.007723063696175814 -0.01697719842195511 0.042718008160591125 -0.038776546716690063 -0.032999783754348755 -0.01360912062227726 -0.02566228061914444 -5.527687608264387E-4 -0.005964795593172312 -0.04845408350229263 -0.03952515870332718 -0.011556941084563732 0.05550580099225044 0.02632622793316841 -0.010854468680918217 -0.027737030759453773 0.03434952720999718 0.016332214698195457 -5.203910986892879E-4 -0.002609201008453965 0.03643067181110382 0.034537650644779205 0.052577704191207886 -0.012683041393756866 0.017054881900548935 0.013501673936843872 -0.004951025824993849 0.055156219750642776 -0.045991044491529465 -0.01052326150238514 0.03311456739902496 -0.011159784160554409 0.018433263525366783 -0.016811558976769447 -0.03742988035082817 -0.0012127095833420753 0.022501999512314796 0.017594916746020317 -0.008037940599024296 0.004614227917045355 0.007913310080766678 0.009197132661938667 -0.003976575098931789 0.016082458198070526 -0.02476494014263153 0.04947827383875847 0.027643412351608276 0.006398634985089302 0.002064676024019718 -0.03135903924703598 -0.027227159589529037 -0.02757609263062477 -0.02241014875471592 -0.006333177909255028 0.027257801964879036 -0.033383846282958984 -0.029053453356027603 0.038031890988349915 0.004218429327011108 0.004875341430306435 0.004536844324320555 -0.07495484501123428 -0.056170571595430374 0.04622643068432808 0.03279420733451843 0.013438254594802856 -0.08974926173686981 0.05564573034644127 -0.011231264099478722 -0.024212291464209557 0.05533512681722641 -0.02888348139822483 -0.0340859480202198 0.013536021113395691 -0.014504964463412762 0.015008206479251385 0.05931952968239784 -0.02703380025923252 0.0020416127517819405 0.020091930404305458 0.03876284509897232 -0.004793387372046709 0.01221263688057661 0.014838388189673424 -0.02828291431069374 -0.01663520745933056 0.03107539191842079 0.003106642048805952 0.020996421575546265 0.031946223229169846 -0.013495867140591145 0.014664224348962307 -0.005814052186906338 0.02858804352581501 0.018522538244724274 0.007713584695011377
B64:cw== -0.047092609107494354 -0.025080375373363495 -0.004231089260429144 -0.06090249866247177 -0.010707271285355091 -0.021686166524887085 0.05186428874731064 -0.04370781034231186 -0.044556308537721634 -0.020131463184952736 -0.03358686342835426 -0.01633884198963642 -0.014104113914072514 -0.07292086631059647 -0.055991996079683304 -0.02011086791753769 0.08551755547523499 0.030840612947940826 -0.020710518583655357 -0.03962181508541107 0.0375983864068985 0.014339294284582138 -0.011468347162008286 0.002672351198270917 0.053255897015333176 0.04090307652950287 0.08150798827409744 -0.004371278453618288 0.033101923763751984 0.017561668530106544 -0.016335563734173775 0.08211972564458847 -0.05659240856766701 -0.008520782925188541 0.039031583815813065 -0.00901731289923191 0.009302018210291862 -0.01961025781929493 -0.04354528337717056 -0.007795483805239201 0.04213176667690277 0.016667574644088745 -0.008295506238937378 -0.007438418921083212 0.004264510236680508 0.006541047710925341 0.0017565622692927718 0.03024846874177456 -0.057478491216897964 0.08919451385736465 0.04182501882314682 -0.0026840721257030964 -4.885561065748334E-4 -0.042316414415836334 -0.03694361820816994 -0.03723291680216789 -0.034318286925554276 -0.01564869098365307 0.03837161511182785 -0.045736897736787796 -0.03481457382440567 0.061123382300138474 0.014495017006993294 -0.003631812520325184 0.017414098605513573 -0.12037923187017441 -0.08346651494503021 0.07931146770715714 0.047146134078502655 0.014480838552117348 -0.13136610388755798 0.07582078129053116 -0.02051197737455368 -0.025754854083061218 0.09113270789384842 -0.03212074562907219 -0.035885848104953766 0.01718023233115673 -0.014775866642594337 0.013506830669939518 0.09544318169355392 -0.04897594451904297 0.005201457999646664 0.038072619587183 0.05866491422057152 -0.005459397565573454 0.011268937028944492 0.033434152603149414 -0.04382415488362312 -0.005966884084045887 0.0303606316447258 0.020253319293260574 0.03393394500017166 0.03927262872457504 -0.00474453903734684 0.030574819073081017 -0.011392668820917606 0.05105217173695564 0.019903648644685745 0.007875796407461166
B64:c3Bj 0.03277256712317467 0.03123091720044613 -0.024379240348935127 0.07647872716188431 0.01631275750696659 0.040601495653390884 -0.042399872094392776 0.020395372062921524 0.03496677055954933 0.004489527083933353 0.026804814115166664 0.014729884453117847 0.020298175513744354 0.07373277097940445 0.04137960448861122 0.03280404582619667 -0.09174714237451553 -0.03472937270998955 -0.00528625026345253 0.05373527482151985 -0.03261348605155945 -0.033263854682445526 0.011196091771125793 0.019343147054314613 -0.04220559448003769 -0.057537373155355453 -0.07911045849323273 -0.010479391552507877 -0.04101596772670746 -0.01493101753294468 0.01749330759048462 -0.07582981139421463 0.0508965402841568 -0.032343823462724686 -0.015889642760157585 0.045822545886039734 0.024806704372167587 0.015434827655553818 0.04589776322245598 0.028913406655192375 -0.044466618448495865 -0.03367876261472702 0.0036312846932560205 0.007575370837002993 6.434375536628067E-4 -0.002504032338038087 -0.0010560017544776201 -0.02715039998292923 0.05044988915324211 -0.1033475399017334 -0.01944257877767086 5.726726885768585E-5 0.021644989028573036 0.02556774392724037 0.034144043922424316 0.039117176085710526 0.03228996694087982 0.02455895021557808 -0.038312990218400955 0.024771548807621002 0.034823913127183914 -0.038638532161712646 -0.03177320212125778 0.023787636309862137 -0.004602975212037563 0.1170894205570221 0.0910789966583252 -0.05780139937996864 -0.04390523582696915 -0.01878557913005352 0.12242580205202103 -0.07606836408376694 -0.01470020692795515 0.035010240972042084 -0.10248558968305588 0.02859680727124214 0.027709631249308586 -0.010399063117802143 0.00729958713054657 -0.03540939465165138 -0.06939797103404999 0.04278300702571869 -0.013598069548606873 -0.034446679055690765 -0.05100695788860321 -7.596483919769526E-4 0.007279441691935062 -0.017248371616005898 0.05099659040570259 -0.005742104724049568 -0.03305262327194214 -0.01390951219946146 0.011743572540581226 -0.03229442983865738 0.029925866052508354 -0.02140415646135807 0.0037639213260263205 -0.04271779581904411 -0.012555855326354504 0.0023210812360048294
B64:aW1n -9.670231956988573E-4 0.003920738585293293 -0.004576565232127905 0.009887482970952988 -0.0026587536558508873 0.0013211630284786224 -0.004868535324931145 0.005868922453373671 0.009225260466337204 0.005384627263993025 0.007305566221475601 -6.123595085227862E-6 0.007263450417667627 0.013974426314234734 0.008761466480791569 6.35987613350153E-4 -0.01402469165623188 -0.008988220244646072 -0.0017457435606047511 0.003032597014680505 -0.005863846745342016 -0.0037833491805940866 0.004417108837515116 0.006136262323707342 -0.002906814217567444 -0.011330140754580498 -0.01377888210117817 -0.0022251633927226067 -0.005691103637218475 0.0011511305347085 -0.0030581268947571516 -0.005745362490415573 0.0010327012278139591 -0.00841524638235569 -0.004897741135209799 0.0030830164905637503 0.0019453652203083038 0.005437072366476059 0.003971074242144823 0.0074765500612556934 -0.0068326545879244804 -0.006772593129426241 -0.005527298431843519 -0.0033757472410798073 -0.0050147054716944695 -7.361436728388071E-4 2.7049731579609215E-4 0.0025316691026091576 0.00781734474003315 -0.015020051039755344 -0.006827390752732754 -0.0038019362837076187 0.005129927769303322 0.005135970655828714 0.005873344838619232 0.00982037652283907 0.003153569996356964 0.004326189402490854 -0.005882258992642164 -2.771210565697402E-4 0.006288975942879915 -0.00811171717941761 -0.00736173614859581 0.0027643817011266947 -0.0010571825550869107 0.011000700294971466 0.011458826251327991 -0.00440526008605957 -0.00937082152813673 -0.005043389741331339 0.014526162296533585 -0.005785270128399134 -4.195339570287615E-4 4.1315346607007086E-4 -0.011799244210124016 0.005250849761068821 -7.885023660492152E-5 -0.00431186705827713 0.004847089294344187 -0.003228797810152173 -0.005757782142609358 0.006110975053161383 -5.455389618873596E-4 0.0014937212690711021 -0.0056842416524887085 0.002169727347791195 0.0018432341748848557 -0.004302766639739275 0.006737800780683756 -1.817544107325375E-4 -2.248241798952222E-4 -0.0055307019501924515 0.007236320525407791 -0.0037596174515783787 0.008090990595519543 0.001816526404581964 0.002459175419062376 -0.004857959691435099 -0.0025109583511948586 -0.0035104979760944843
B64:ZGVmYXVsdA== -0.0020178849808871746 0.009427064098417759 -0.0160969328135252 0.038696978241205215 0.0011760038323700428 0.03140759840607643 -0.007854517549276352 -0.013028464280068874 -0.0024448810145258904 -0.015458649955689907 0.009061398915946484 0.01079170498996973 0.009560056030750275 0.02412073127925396 -2.2390925732906908E-4 0.020113609731197357 -0.03121236339211464 -0.024910131469368935 -0.027498116716742516 0.03694853559136391 -0.014671389013528824 -0.035029228776693344 0.010401293635368347 0.017426496371626854 -0.01170943770557642 -0.039708033204078674 -0.01617424748837948 -0.026407930999994278 -0.018320415169000626 0.0021582222543656826 -8.680298924446106E-4 -0.016298582777380943 0.005537796299904585 -0.03126351162791252 -0.006979931611567736 0.028259024024009705 0.017901964485645294 0.016250867396593094 0.01382528617978096 0.007036285009235144 -0.00550666730850935 -0.028308779001235962 0.001844883314333856 0.0052316454239189625 0.004452409688383341 -0.00697653042152524 -0.0011082446435466409 0.010659849271178246 0.0194571353495121 -0.04142626374959946 0.0026853724848479033 -0.00999605841934681 0.018815327435731888 -0.008628149516880512 0.014189647510647774 0.026705538854002953 0.0021302266977727413 0.0043322243727743626 -0.004997184965759516 0.001067870412953198 0.020925959572196007 0.00966212060302496 -0.02222350798547268 0.029695376753807068 0.003218819387257099 0.02950926125049591 0.0377320870757103 8.270800462923944E-4 -0.013025060296058655 -0.01798144355416298 0.028939152136445045 -0.02986462228000164 -0.020698759704828262 0.0022773509845137596 -0.026673449203372 0.017008865252137184 0.0019204807467758656 0.013587189838290215 2.683159545995295E-4 -0.0332050621509552 -0.021117230877280235 0.007539240177720785 -0.023392079398036003 -0.013230866752564907 -0.03036637045443058 -0.010700138285756111 0.0038178497925400734 -0.005202103406190872 0.027498317882418633 0.006532865110784769 -0.01961422897875309 -0.009306048043072224 0.029785312712192535 0.006517879664897919 0.028942275792360306 -0.0010895451996475458 -0.004661160055547953 0.011124021373689175 0.002569175325334072 0.005648849997669458
B64:c3Zn 0.00298160407692194 0.003112390637397766 -0.004730891436338425 0.003917333669960499 -0.0024955670814961195 0.00396588584408164 -8.798609487712383E-4 0.0012140984181314707 0.0022953376173973083 -0.004744016099721193 -0.0031841169111430645 -0.004248497541993856 0.0032467113342136145 0.0029165088199079037 -0.005555964075028896 -0.0012622539652511477 0.001889221603050828 -0.0028493052814155817 0.002818964421749115 -0.005776539910584688 -0.0035371617414057255 -0.003993581514805555 0.0029996363446116447 0.0026618572883307934 0.0057269432581961155 0.001181629253551364 0.0033742589876055717 -0.007097192574292421 0.003889590734615922 1.5222321962937713E-5 0.0011186578776687384 0.0063743931241333485 -0.007228237111121416 -0.0025220471434295177 0.0012985322391614318 0.005201618652790785 0.0011737991590052843 -0.001972793135792017 4.260099958628416E-4 0.00116200081538409 0.004119129851460457 -0.0060084047727286816 -6.87924213707447E-4 -6.467664206866175E-5 0.0045372797176241875 0.0023486812133342028 0.0083823436871171 0.005934587679803371 -0.0034878163132816553 0.002524246461689472 0.006257549859583378 0.0035759122110903263 2.7493658126331866E-4 -0.002288931980729103 -0.0054072062484920025 -6.987330270931125E-4 0.003345194971188903 -0.0012480040313676 0.0027179059106856585 5.694652209058404E-4 0.0032449434511363506 0.002733982866629958 -0.00551466504111886 -0.005700166802853346 0.0032817304600030184 -0.0014504739083349705 -0.003912869840860367 -0.004720334429293871 0.0037240951787680387 -0.0018375355284661055 0.0016149377916008234 0.0030427780002355576 -0.001247085863724351 0.006294317543506622 2.898997627198696E-4 -0.0015698105562478304 0.003976641222834587 0.0015299071092158556 0.003920044284313917 -0.0016495503950864077 0.0029549002647399902 0.0015185517258942127 9.06606437638402E-4 0.002651961985975504 0.0013422267511487007 0.0013650995679199696 -9.259587386623025E-4 -7.656386005692184E-4 -0.004648980218917131 0.0016108142444863915 0.004508501850068569 0.008466995321214199 0.0010424237698316574 -0.0032602560240775347 -0.0016137411585077643 0.00612530205398798 0.005643651820719242 -0.0010151496389880776 0.0041170623153448105 0.0011868998408317566
B64:cWdqag== 0.0034143051598221064 -0.0036519113928079605 0.001031434047035873 -0.01240115612745285 -0.007711281534284353 -0.004580014385282993 0.006868717726320028 0.006318326573818922 0.0020088364835828543 0.0038288894575089216 -0.003352312371134758 -0.007885653525590897 -0.0011195436818525195 -0.003579384181648493 -0.008195211179554462 -0.005775413475930691 0.006624206900596619 0.008313446305692196 0.0011644400656223297 -0.014604020863771439 0.006166606675833464 0.01152670569717884 -0.002533499151468277 -0.010409724898636341 0.0025592446327209473 0.008254362270236015 0.004191565327346325 0.0010662866989150643 0.0071822539903223515 -0.0014805063838139176 0.003964511211961508 0.0022608956787735224 -0.0020388206467032433 0.009935515001416206 0.008528108708560467 0.0012197120813652873 0.002476966939866543 -0.002705689985305071 0.0018097676802426577 -0.0033177209552377462 0.007608766667544842 -0.001054517226293683 0.0024083792231976986 0.003858900163322687 -0.002503749681636691 0.004531833343207836 0.0027618110179901123 -0.005526405293494463 -0.005680029280483723 0.006334863603115082 0.008043128065764904 -5.18533808644861E-4 -0.0025957992766052485 -0.004553305450826883 -0.0020433540921658278 -0.008855735883116722 0.0010022703791037202 -0.005932539235800505 -0.00410522660240531 -0.008264366537332535 -0.001072521903552115 -0.0013967764098197222 0.0017228025244548917 -0.00966136809438467 0.00736125698313117 -0.007948438636958599 -0.013834991492331028 0.002138781361281872 -0.0019063563086092472 0.0027784749399870634 -0.0126063646748662 0.012212212197482586 -0.002452440559864044 -0.0010787567589432001 0.011427396908402443 -0.005831228569149971 0.0060700057074427605 -0.0018599146278575063 0.005406099837273359 0.004416021518409252 0.0055535039864480495 -0.009797442704439163 0.008515926077961922 0.0010525800753384829 0.003884450998157263 -0.0020658844150602818 0.0044484976679086685 -0.0029944414272904396 -0.01036314107477665 -6.575851002708077E-4 0.0025023813359439373 0.0049175675958395 -0.0074428231455385685 2.0462086831685156E-4 -0.00781609583646059 0.0035529369488358498 -0.0011052454356104136 -6.405595340766013E-4 0.006522268056869507 -0.0028347426559776068
B64:Y29sb3I= 0.10540835559368134 0.09533875435590744 -0.11282417923212051 0.25939658284187317 0.0569349080324173 0.15930792689323425 -0.13486534357070923 0.06888394802808762 0.1245800107717514 -0.013491093181073666 0.10831113159656525 0.06962193548679352 0.07096659392118454 0.28311192989349365 0.1620359718799591 0.12985196709632874 -0.3430957496166229 -0.1527019888162613 -0.038525499403476715 0.21455951035022736 -0.12093554437160492 -0.14883781969547272 0.01738833449780941 0.08620025217533112 -0.15022332966327667 -0.21605202555656433 -0.2837149202823639 -0.06509112566709518 -0.1678876131772995 -0.02920907735824585 0.05132126808166504 -0.29680636525154114 0.16048897802829742 -0.11868701875209808 -0.07117883861064911 0.1784427911043167 0.1227538213133812 0.06869658827781677 0.13976353406906128 0.09791673719882965 -0.1571090966463089 -0.14186608791351318 0.017610426992177963 0.03698921948671341 0.008406693115830421 -0.03130919486284256 -0.025909680873155594 -0.08341635763645172 0.212627574801445 -0.3993014395236969 -0.06770235300064087 -0.01940007135272026 0.07842286676168442 0.07030534744262695 0.11642585694789886 0.1582319587469101 0.09858719259500504 0.07684231549501419 -0.14242121577262878 0.09067527949810028 0.12900786101818085 -0.12288755923509598 -0.1498771607875824 0.11781448125839233 0.003228861605748534 0.40470969676971436 0.3291727602481842 -0.20067571103572845 -0.16560736298561096 -0.08143755793571472 0.4279264807701111 -0.2663905620574951 -0.052953045815229416 0.10870373994112015 -0.35973435640335083 0.09604410082101822 0.0730748102068901 -0.032133057713508606 0.002345325658097863 -0.17557185888290405 -0.2630175054073334 0.13722868263721466 -0.07332772761583328 -0.11814543604850769 -0.17347288131713867 -0.0019292868673801422 0.017869945615530014 -0.08189398050308228 0.18527191877365112 -0.0099538778886199 -0.12229818850755692 -0.051976628601551056 0.06356076896190643 -0.10184402763843536 0.12626026570796967 -0.08082795143127441 0.0012749505694955587 -0.13149335980415344 -0.03660120069980621 0.033197373151779175
B64:YXV0aGZvb3Rlcg== -0.007263188250362873 0.0026635779067873955 -0.010149545967578888 -0.001123959431424737 -6.904460024088621E-4 -7.824070635251701E-4 0.006728162057697773 -0.010977753438055515 -0.002622719155624509 -0.006098914425820112 0.002267237054184079 0.002107309177517891 -0.002288232324644923 -1.070052821887657E-4 -0.0010028814431279898 7.156273350119591E-4 0.0011718845926225185 0.004389645531773567 -0.01092098094522953 -0.0020583453588187695 0.0020877444185316563 -3.6616745637729764E-4 -0.0017304208595305681 0.008470205590128899 -0.0011617476120591164 -0.00405509676784277 0.005555981770157814 -0.00347959715873003 -0.0018676542676985264 0.00240528816357255 8.097590180113912E-4 0.007961039431393147 -0.0039151678793132305 -0.010156543925404549 -0.0012893835082650185 0.0049341158010065556 0.0013375981943681836 -7.212364580482244E-4 -0.007869855500757694 -0.0016043441137298942 8.036603685468435E-4 0.0012270673178136349 0.0029162121936678886 -0.003827744862064719 0.0054915533401072025 -0.003668395569548011 1.2565491488203406E-5 0.009529396891593933 8.092499920167029E-4 -0.0033714352175593376 0.008076037280261517 0.002970506902784109 0.003857972100377083 -0.0023832982406020164 -6.455103866755962E-4 -0.004028011113405228 2.6133362553082407E-4 0.002863689325749874 0.0069201234728097916 -0.004697989206761122 0.004398961551487446 0.0028544231317937374 -0.0014498906675726175 0.004284034017473459 -1.638118119444698E-4 -0.002074325457215309 -0.002066768938675523 0.010043357498943806 0.0014070809120312333 -0.004432279616594315 -0.006413055583834648 9.464675094932318E-4 -0.005039636045694351 -0.00292075052857399 -0.0010179239325225353 -2.726358943618834E-4 -0.007016446441411972 0.005618399009108543 0.0023322661872953176 -0.0026154895313084126 0.004074702039361 -0.00281860982067883 -0.003179277293384075 -0.0015012084040790796 0.003230104222893715 -1.687022449914366E-5 0.006010688841342926 0.008066801354289055 0.002014271216467023 0.004976397845894098 0.0040709045715630054 0.0044121756218373775 0.004536707419902086 0.006809378042817116 0.001885249512270093 6.157142342999578E-4 -0.0061242044903337955 0.009077555499970913 0.0025198902003467083 -0.0027176858857274055
B64:YWxpY2U= 0.029231341555714607 0.017525294795632362 -0.008672362193465233 0.04187307506799698 0.008051823824644089 0.025741852819919586 -0.03704005852341652 0.026843296363949776 0.015279731713235378 0.009534930810332298 0.018927983939647675 0.024513933807611465 0.007507174741476774 0.04882775992155075 0.04980775713920593 0.028568319976329803 -0.057338740676641464 -0.02003873884677887 0.013669575564563274 0.03259660676121712 -0.017416611313819885 -0.01938234455883503 0.011767487041652203 0.010815155692398548 -0.030150165781378746 -0.035899918526411057 -0.05654018372297287 0.0025155553594231606 -0.01985621638596058 -0.008486444130539894 -0.0015188814140856266 -0.05379728972911835 0.03420310467481613 -0.009729149751365185 -0.018531108275055885 0.021419931203126907 0.009832998737692833 0.0012411600910127163 0.02966306544840336 0.011780453845858574 -0.03111373446881771 -0.01462261751294136 0.0022272595670074224 -0.008027821779251099 -0.020774714648723602 -0.009780874475836754 -0.009045854210853577 -0.01938510313630104 0.05573447421193123 -0.07292867451906204 -0.02900378219783306 -0.0014886490534991026 -0.0012063473695889115 0.02012687735259533 0.03162449225783348 0.03341211378574371 0.016091177240014076 0.02569195069372654 -0.02822287566959858 0.012286107055842876 0.015194645151495934 -0.029677150771021843 -0.02068944089114666 0.019369516521692276 -0.00989051815122366 0.07653586566448212 0.05669301003217697 -0.03863407298922539 -0.01801677606999874 -0.008360282517969608 0.07847980409860611 -0.049608662724494934 0.009718230925500393 0.025676535442471504 -0.05984329804778099 0.020275000482797623 0.009696893393993378 -0.007966451346874237 0.009702973067760468 -0.02235441282391548 -0.054474227130413055 0.02051488496363163 -0.0012893638340756297 -0.033188533037900925 -0.03684137761592865 -0.006804959382861853 -0.017701491713523865 -0.02031998336315155 0.030047794803977013 -0.006907522678375244 -0.022221367806196213 -0.026767926290631294 -0.020825335755944252 -0.023424874991178513 0.011574297212064266 -0.0163121297955513 -0.01071519497781992 -0.039557866752147675 -0.017123209312558174 0.007873095571994781
B64:ZXZk 0.012019520625472069 0.0011847231071442366 -0.0027204512152820826 0.0036205160431563854 0.006667083129286766 0.005257000681012869 -0.009578177705407143 0.00974638108164072 0.007337865885347128 0.006642074789851904 0.0028576243203133345 0.008683404885232449 -0.0011547162430360913 0.012322986498475075 0.012920945882797241 0.008652384392917156 -0.014993187040090561 -0.009464888833463192 0.005198190454393625 0.002266631228849292 9.438599226996303E-4 -0.0050298552960157394 5.868050502613187E-4 -0.006161862052977085 -6.69410394039005E-4 -0.004104111343622208 -0.019491275772452354 0.0013451018603518605 -0.0033606362994760275 -0.005224328953772783 0.0020628725178539753 -0.01375983189791441 0.009780420921742916 -0.0011724499054253101 -0.006703506223857403 -0.001947581535205245 -0.0011570194037631154 0.005819661542773247 0.009291260503232479 9.745040442794561E-4 -0.009900134056806564 -0.0069152191281318665 0.0037644035182893276 -0.005759118590503931 -0.0012618255568668246 -0.0022253000643104315 -0.001504545914940536 -0.005411201156675816 0.0068003106862306595 -0.01081132609397173 -0.012367934919893742 -1.761632302077487E-4 0.0010908558033406734 0.003851252840831876 0.008881904184818268 0.006644240580499172 0.009683193638920784 0.00940353237092495 -0.0038637355901300907 0.00986845139414072 0.003011253895238042 -0.016707293689250946 0.005733964964747429 0.002379427431151271 -0.0049625723622739315 0.02387719601392746 0.011043352074921131 -0.015139336697757244 -0.0035426593385636806 -0.0015057205455377698 0.024974428117275238 -0.015307349152863026 0.0010961693478748202 0.008975237607955933 -0.01571931131184101 0.004926447290927172 0.0017477255314588547 -0.006462663412094116 0.005259144585579634 -0.006379333790391684 -0.01577860675752163 0.005800922401249409 -8.154219249263406E-4 -0.010806277394294739 -0.0031734879594296217 0.004991483874619007 0.001732076401822269 -0.003209939692169428 0.008260797709226608 -0.00712598068639636 -0.004483561031520367 -0.007072689011693001 -0.0035345894284546375 -0.008743290789425373 0.0025974721647799015 -0.005216626916080713 0.002202531322836876 -0.008202294819056988 -0.005137920845299959 -0.0033771609887480736
